273 100
</s> 0.0048424 0.019537 0.0015002 0.0030706 -0.0087636 0.013928 -0.012334 0.0011575 -0.0087712 0.004253 0.00405 0.0070083 -0.013258 0.0023006 -0.0070778 0.0050841 -0.0032612 -0.00083377 -0.0040721 0.00019238 -0.0068153 -0.0089938 -0.0027805 0.0070498 -0.003714 -0.0060054 0.0020986 -0.0097413 0.0020417 0.0064214 0.0012515 -0.0018837 0.00021135 0.0045885 -0.010441 -0.0057782 0.010382 -0.01182 -0.0036218 0.010175 0.015057 -0.00059897 0.0073169 0.0075512 0.018899 -0.0031845 0.0019232 0.0027684 -0.019304 -0.0064569 0.0056627 -0.014336 -0.0083597 0.0083993 -0.0025084 0.011581 -0.010096 0.023334 -0.00041022 0.0068818 0.0016218 -0.0085614 0.016095 -0.011934 -0.0079234 -0.018615 0.0070119 0.0035063 -0.014998 0.0018771 0.008765 -0.0062664 0.0041155 -0.0056871 -0.0055303 -0.0012064 0.0065263 -0.0022195 0.016744 -0.00020761 0.018587 -0.021544 0.012156 -0.00094606 0.0048942 0.0046502 -0.020474 -0.0031582 -0.012496 -0.019391 -0.012094 0.006858 0.012518 -0.0095748 -0.0055912 -0.0098831 0.0060348 -0.00036071 -0.0085112 0.014852 
电影 0.0060189 0.0092837 0.0088471 -0.00031908 -0.004334 0.0091407 -0.006645 0.0027663 -0.0073385 0.0022418 -0.0023776 0.0018911 -0.0054771 0.0035469 -0.0057644 0.0015644 0.0023437 -0.0011986 0.00077423 0.00039709 -0.008439 0.0010646 -0.0022674 0.0040547 -0.00057514 -0.0054505 0.00081234 -0.0084014 0.0011839 -0.00074669 0.0034306 -0.0035751 -0.0012971 -0.00065506 -0.0075693 0.0008747 0.0014142 -0.0035538 -0.001964 0.006139 0.0039794 0.0015254 0.0029168 0.004145 0.0084545 -0.0013753 0.0044107 -0.0029451 -0.0075581 -0.0027307 0.0051672 -0.007159 -0.0022589 0.0026561 -0.0023413 0.0091202 -0.0014531 0.013134 -0.0012699 -0.00015897 0.0031705 -0.0045549 0.012004 0.00013693 -0.0085228 -0.011637 -0.0013372 -0.0012567 -0.0090821 0.0053131 0.0042644 -0.0056021 0.0029777 -0.0030923 -0.0024437 -0.00024066 0.0044785 -0.00072561 0.0069371 0.00072369 0.011523 -0.014365 0.0063131 0.0014184 0.0056813 4.0749e-05 -0.012303 -0.004037 -0.0042458 -0.00079098 -0.0079897 0.0010982 0.0071912 -0.0027748 0.0010274 -0.0047291 0.0016834 0.0010509 -0.0011281 0.00707 
希望 0.0067839 0.0043891 -0.0012371 0.00094699 -0.006885 0.0050752 -0.0050566 -0.0015701 -0.0015909 0.0087899 -3.7052e-05 0.0013877 -0.0018403 -0.00051881 -0.0066117 -0.00027403 0.0010773 -0.0041141 -0.0048467 0.0032384 -0.00065948 -0.0063949 -0.0042716 0.0089374 -0.004908 -0.0010251 0.0019343 -0.0076009 0.00040422 0.0047589 -0.00093185 0.0011597 0.0012824 0.0016607 -0.0037884 -0.0075244 0.00093729 0.0012785 -0.0018049 0.0086354 0.0018471 -0.0001891 0.0047518 0.0052716 0.0041988 0.0010751 0.0040457 0.0013668 -0.0028655 -0.0015818 0.00071946 8.5336e-06 -0.0054206 0.0071113 -0.0044847 0.0037538 -0.0061639 0.007639 -0.0027169 -0.00049312 0.0046659 0.0021812 0.005661 -0.0039504 -0.002394 -0.0083012 0.0008638 0.0066166 -0.0013898 4.3867e-05 0.002877 0.00021008 0.0016765 -0.00026079 -0.0056424 -0.0012862 0.0053529 -0.0033402 0.010773 -0.00096576 0.0089159 -0.00922 0.0015043 0.0015446 0.00056235 0.00022644 -0.0070449 0.0059776 -0.0028883 -0.0096418 -0.0066957 0.0048118 0.0063192 -0.0066692 -0.0039807 -0.0016207 0.0041966 -0.0024751 -0.0025102 0.0074654 
经典 0.0037827 0.0069094 0.00071176 0.00222 -0.0092088 0.0061961 -0.0051864 0.004587 0.0033485 0.0064246 0.0055583 0.0052731 -0.0025187 0.0029512 -0.0028945 0.0034645 -0.0001211 -0.002939 0.00015304 -0.00016469 -0.0031871 -0.0051842 -0.0023066 0.0041057 5.9811e-05 -0.0026192 0.0055083 -0.0039332 -0.0046697 0.00080349 -0.001228 0.0035827 -0.0020867 -0.0014946 -0.002919 0.0013067 0.0069343 -0.00021388 -0.0020017 0.00042573 0.0098616 -0.0044696 -0.00034857 0.0018894 0.0056497 0.00092818 0.00018143 -0.0040202 -0.0050392 -0.0026543 0.0040612 -0.0046657 0.0031318 0.0020896 -0.004381 0.0055361 -0.0024656 0.0074185 0.0016019 0.0035722 -0.0010896 -0.0032456 0.0023397 -0.009251 -0.0061677 -0.0076459 0.0026291 0.0015318 -0.0082437 0.0003706 -0.0017304 -0.0035881 0.004442 0.0033233 -0.0024584 0.0049359 0.0034319 0.0040293 0.005376 -0.0047149 0.0024733 -0.0054895 0.0081478 0.0038301 0.0049549 0.00066067 -0.009895 -0.0026752 -0.010068 -0.0081746 -0.0080115 0.0010838 0.0030035 -0.0032984 -0.0048507 -0.0028042 0.0029567 0.001066 -0.0051671 0.0079065 
自由 -0.00093038 0.0057016 0.0019995 -0.0011599 -0.0042936 0.0095851 -0.0064667 -0.002379 0.00202 0.0071495 -0.0012884 0.00042406 -0.0038837 0.0044313 -0.00010349 0.0019663 -0.0031626 -0.0047026 -0.0018198 0.0048399 -0.0010394 -0.0039018 -0.0013402 -0.00055611 0.0036775 0.00028835 0.0048216 -0.0012847 -0.00048504 0.0064964 -0.0029525 -0.0037814 -0.0026753 0.0027975 -0.0050377 0.0014342 0.00086537 0.00047519 -0.0051499 0.0059954 0.0039742 -0.0041117 0.004308 0.0017425 0.010472 -0.0018898 0.0065374 0.0022862 -0.0068146 -0.0023532 -0.003103 -0.0058816 -0.0029936 0.0063313 0.0020451 0.0072654 -0.0094291 0.010496 -0.006187 0.008522 -0.0010386 -0.0019602 0.0049315 -0.0029357 -0.0022998 -0.00021138 0.0022002 0.0017633 -0.0067327 0.00042535 0.0051945 -0.0014223 0.0047921 0.00038039 -0.0069842 -0.0063338 0.0031096 -0.0009356 0.013028 -0.00092116 0.0056748 -0.0092409 0.0092699 0.001245 0.0030678 -0.00063101 -0.0097973 0.0013696 -0.0056335 0.00065467 -0.0030826 0.0033685 0.0085246 -0.0020925 -0.0012793 -0.0024614 -0.0030751 -0.0032679 -0.0063384 0.0048893 
喜欢 0.0058158 0.0063866 0.0028924 0.0024871 4.8959e-05 0.0038054 7.6338e-05 -0.00078789 -0.0066359 0.0043196 0.0019688 0.0027123 -0.004942 -0.0022057 -0.0026954 -0.0010927 -0.0036076 -0.0031228 0.0026957 -0.00082621 -0.0021413 0.0021797 0.0022729 0.0029386 0.00035144 -0.00071515 0.0036528 -0.0088546 0.0002595 -0.0013573 0.0039679 0.0054327 0.0013386 -0.0027319 0.003668 0.0011736 0.0025859 -0.0019644 -0.0022077 0.0037973 -0.0005005 -0.0043891 0.0019501 -0.00035203 0.007894 0.00060979 -0.0025612 -0.0024608 -0.0056796 -0.00070421 0.001018 -0.0078381 -0.003719 0.0046364 0.0032606 0.0017097 -0.0012553 0.0007441 -0.001961 0.003853 -0.0032111 -0.0021056 0.0052055 -0.0082218 0.00090867 -0.0018964 0.00091238 -0.0043747 -0.0031207 0.0012222 -0.00088229 -0.0018524 0.0052806 -0.0029501 -0.003186 -0.00037004 0.0012376 -0.0010159 0.0021038 0.0012597 0.005219 -0.0010763 0.0041432 0.008785 0.0045378 -0.00046406 -0.0095088 0.0026513 -0.0031545 0.0023095 0.00011346 -0.0011512 -0.0012294 0.00084349 -0.0032281 0.0014808 -0.0012988 -0.00054104 -0.00020608 0.0025185 
真的 0.0025077 0.0067065 0.0064313 -0.00070133 -0.005779 0.0075972 -0.0021493 0.00046595 -0.001778 0.0012919 0.0035064 0.001851 -0.0043179 -0.0028908 -0.0013758 0.0055913 0.002501 -0.00017305 -0.0030849 0.00051533 0.00080957 -0.00255 0.0014656 0.005263 0.004727 0.0035328 -0.0012536 -0.00020175 -0.0025261 0.00080399 -0.0012446 -0.0052616 -0.0010642 -0.0032042 0.0010333 0.0020425 0.0040827 0.0020214 -0.0017651 0.0030852 0.0019597 -0.0046604 0.0029329 0.0033667 0.0069358 -0.00037098 0.0044256 0.0011729 -0.00036082 -0.002121 0.0059581 -0.0036371 -0.0079413 0.003016 0.00076347 0.00079619 -0.0031079 0.0081632 0.0051374 -0.00018025 -0.00096666 0.005618 -0.0032841 -0.0035141 -0.0044334 -0.0026614 -0.001725 0.0049835 0.00018431 -0.0011239 -0.002299 0.00098851 -0.00083198 -0.0020931 -9.8383e-05 -0.0028343 0.0059937 -0.0024525 -0.0051225 0.0040186 0.0062377 -0.003408 0.00035023 -0.0013616 0.0025812 -0.00097355 -0.0029957 -0.0005942 -0.002311 -0.0033115 -0.0051857 -0.0023694 -0.0012267 -0.003477 -0.0063524 -0.0075069 -0.0023535 -0.00043961 0.0023244 0.0041366 
好看 0.0048802 -0.0014414 0.00033562 -0.003851 0.00042666 -0.00045233 -0.0032982 0.0051362 0.00016437 0.0019865 -0.00015371 -0.0048568 -6.3266e-05 5.6372e-05 -0.0017026 -0.00085224 -0.0034841 -0.00031181 0.0033603 0.0016441 -0.00263 -0.0037098 -0.0042573 -0.0021266 0.00023046 0.0013172 -0.00067269 0.00038344 -0.00018713 0.0016764 -0.0028676 0.0016904 0.0038931 0.0046557 -0.0044045 -0.00040072 0.0029905 -0.0014056 0.0019719 0.0036753 0.0050827 -0.00067849 0.003742 0.0012363 0.00059162 0.0029929 0.0021699 0.0015798 0.0031226 0.0028678 -0.0034564 -0.0054052 0.00016782 0.0020343 -0.0035473 -0.0025406 -0.0041381 -0.0026761 0.00084985 -0.0010651 0.00044405 -0.00072877 0.0056785 -0.0014956 -0.0014449 -0.0014455 0.0028629 -0.0017555 -0.00093886 -0.0040548 0.0035028 -0.0010805 0.0016499 0.0038123 0.0029483 0.004868 0.0024172 0.00054227 -0.00078411 -0.0029537 -0.0033582 -4.0161e-05 0.0051019 -0.0030255 -0.0041202 1.9717e-05 -0.003118 -0.00011767 0.0028261 -0.0058281 0.00014006 -0.00028009 -0.002402 0.0027656 -0.0071024 -0.0074169 -1.8666e-05 -0.0025203 -0.0015382 -0.0020937 
震撼 0.00029186 0.00017399 0.006567 0.00066097 0.00090421 0.0048082 -0.0076167 0.004196 -0.0070486 -0.00093191 -0.0012506 -9.4675e-05 -0.0018835 0.0058117 -0.0013697 -0.0027933 0.00032445 0.0035943 -0.0024189 -0.001378 -0.0055185 -0.001855 -0.0045091 -0.00097942 -0.0011468 0.00015367 0.0034319 -0.0090262 0.0072955 -0.002479 0.0055217 0.00043237 3.6755e-06 0.00070124 -0.001667 -0.0024031 0.0077792 -0.0030019 -0.00022129 0.0016062 7.6309e-05 -0.0011058 0.0066099 0.0037781 0.0096314 -0.0058445 -0.00020589 0.0062173 -0.0064079 0.00063175 -0.0049286 0.0036487 -0.003981 0.0047464 0.0010919 0.0044192 -0.004259 0.0042435 -0.0021001 0.0046224 -0.0044105 -0.0054036 0.010088 0.0010035 -0.0015266 -0.0086049 0.0094831 0.0031382 -0.0042606 0.0021817 0.0028679 -0.0085299 -2.6519e-05 -0.00058651 0.0027242 0.00049876 -0.0040587 0.0010534 0.0090586 0.00069725 0.0050711 -0.0057146 0.0037812 -0.0045448 0.00093073 0.00021899 -0.0075662 0.0014471 -0.002017 0.0011713 -0.00020208 -0.00029334 0.0092123 -0.00020041 -0.0033576 -0.0037512 0.003159 0.005365 0.0037784 0.0033836 
事情 -0.0049619 0.0001077 0.00051918 0.0013416 -0.0033727 0.0045879 0.0029046 -0.0011629 -0.003238 0.001269 -0.00075736 -0.0019174 -0.0011245 -0.00078054 -0.0031971 -0.0010572 -4.0865e-05 -0.0079268 0.0020262 -0.0017129 -0.00066434 -0.0014509 0.0027604 -0.004278 0.0045201 0.00018397 0.001741 -0.0026397 0.00047751 -0.0018787 -0.005163 -0.0064961 0.00089223 -0.00070097 -0.0010513 -0.00029434 -0.0024322 0.00466 -0.0018289 -0.0010507 0.0038044 -0.001346 -0.0011781 -0.0025374 -0.0019456 0.0012393 0.0024026 0.0022998 0.0003776 -0.0013086 -0.0029914 -0.0052378 -0.0039397 0.0039669 -0.0043438 -0.0021696 0.00053487 0.00023372 -0.00036633 0.0018762 0.0021593 0.00067443 -0.00060106 -0.0022475 0.00039368 -0.0012751 -0.00215 -0.0030392 -0.0030647 0.00022778 0.0012231 -0.0066987 0.0022439 -0.0035387 0.0024292 0.0053916 0.0031555 -0.0040875 0.0012466 0.0010061 -0.0015401 0.00074871 0.0031732 -0.005116 -0.0043798 -0.0012655 0.0014162 0.0027754 -0.0043504 -0.0013216 0.0040461 0.0033277 0.00035277 -0.0012274 -0.0030598 -0.0060878 0.00023065 0.00087231 -0.0048851 -0.0072596 
救赎 0.003536 0.0054738 -0.00087172 0.0098623 -0.0040738 0.0045807 -0.0060684 -0.00075557 -0.0023589 0.0010092 0.001396 0.004087 -0.0020277 0.0039489 -0.0057784 0.00032365 0.0011567 -0.0044412 -0.00023603 0.0014944 0.0011956 -0.0075079 0.0015927 0.00047416 -0.0037582 -0.0027155 0.0034271 -0.0038852 -0.0020613 -0.00020027 0.0037608 -0.0029366 0.0018357 0.0038601 -0.0021537 -0.0044202 0.003569 -0.0051804 -0.0010656 0.00044874 0.0031162 -0.0041605 -0.00073364 -0.00040393 0.0095005 0.0018308 0.0017696 0.0026761 -0.0091483 -0.0046924 -0.0065087 -0.0054027 -0.002673 -0.00052179 -0.0024538 -0.0021988 -0.0060722 0.01126 -0.0029509 -0.00080995 0.0025659 0.0027709 0.0078205 -0.00048907 -0.0098449 -0.00062425 0.0024691 0.0014952 -0.0077883 -0.00042395 0.0033688 -0.00036144 0.0075832 -0.0049733 -0.0027276 -0.0030646 -0.0010192 -0.0010743 0.0084067 0.0018452 0.0040198 -0.0069267 0.00051124 -0.0020136 0.0027497 -0.00027796 -0.0091998 0.00020141 -0.0022844 -0.010757 -0.0065852 0.0029288 0.0061345 -0.0087566 -0.0056515 -0.007272 0.0026637 0.0019515 -0.0039352 0.001919 
地方 0.0063568 0.014326 -0.0021778 0.01029 -0.0059677 0.010399 -0.0060986 -0.0034169 -0.0086932 -0.003292 -0.0034679 0.0018763 -0.0063122 0.0051551 -0.0044912 -0.0012766 0.0027908 -0.0062282 0.0014583 -0.0011719 -0.0030948 -0.0063332 -0.0027619 0.0062672 -0.0011759 0.0010769 0.005279 -0.0023145 0.00050858 0.00037826 0.0017155 -9.4359e-05 -0.0059315 0.00089483 -0.0012851 -0.0023528 0.0086104 -0.0099134 -0.0028161 0.0036542 0.0083331 -0.0058842 0.001947 0.0092512 0.011113 -0.00011581 0.0029267 0.0038491 -0.0098938 -0.001545 -0.00071922 -0.0087205 -0.0014002 0.0014736 0.0030328 0.0052386 -0.0086523 0.011312 0.0021882 0.0043878 -0.00012103 -0.0061759 0.0033524 -0.0096716 -0.0076129 -0.0087231 0.0011509 0.0019031 -0.013911 0.0012712 0.0037206 -0.0027281 0.0063286 0.00013221 -0.0043183 -0.0004683 0.0042081 0.0022644 0.010835 0.00090114 0.012435 -0.011475 0.0014058 0.0067956 0.0048283 0.0018159 -0.011659 -0.0040673 -0.0006983 -0.013029 -0.0076602 0.0042036 0.0094265 -0.0041832 0.00052196 -0.0027305 0.001194 -0.0015783 -0.0098007 0.0016239 
越狱 0.0035276 0.00061987 -0.00085895 -0.0013511 0.0030088 0.0049833 -0.0034654 -0.0029047 -0.0022283 0.0031965 -0.0014949 0.004184 8.6817e-05 -0.00025772 -0.00036791 0.001642 -0.00014211 -0.0010467 -0.00088037 -0.0017682 -0.0019192 -0.0026698 0.0016023 0.006468 0.0014691 -0.0017526 0.0020421 -0.00088735 0.0037791 -0.0011038 0.0034151 0.00065874 -0.004054 0.0041511 -0.0035249 -0.00082635 0.0051152 -0.0035096 -0.0045016 0.0011195 0.0046568 -0.0036312 0.0029769 -0.0005252 0.0060431 -0.0027671 0.0027632 0.0056527 -0.0076062 -0.0013485 0.0016974 -0.0030873 -0.0045417 -0.00024845 5.105e-06 0.0029237 -0.00030895 0.0031451 -0.00054907 0.0028843 0.0060478 0.0017276 0.0071318 -0.0028437 -0.006369 -0.0045728 0.0057727 0.0051095 -0.0011455 -0.0025319 0.0029392 -0.00073471 0.0083647 -0.0011579 -0.001684 -0.0035454 -0.00029173 0.0051141 0.0021298 -0.0022668 0.0057057 -0.010084 0.004373 0.00226 0.00164 0.0012898 -0.0066635 -0.0057685 -0.0020855 -0.0032455 -0.0039253 -0.0035677 0.0088113 -0.0034908 -0.002844 -0.0018391 0.0012122 -0.0010854 -0.0024346 0.0013349 
这部 0.0028966 0.0044712 0.0048054 0.0037785 -0.0041952 0.0047729 -0.0037566 0.00031044 0.001375 0.0033308 0.0010075 0.0046515 -0.0056752 0.0026917 0.00025009 0.0033695 -0.0004124 0.0044097 -0.0047379 -0.0007546 -0.0025532 -0.005187 0.0011499 -0.00045679 0.00077786 0.00064861 0.0044358 0.00072868 -0.0023792 0.0049945 0.0053219 -0.0053372 -0.004941 0.002106 -0.0015216 -0.00077125 7.3792e-05 -0.0048667 0.0044194 -0.00055265 0.0022796 -0.0026936 -0.00013295 0.0022214 0.0080285 -0.0018978 -0.00020433 0.0032085 -0.0095418 -0.0015459 0.0022199 -0.0069523 -0.0025439 0.0062023 -0.0048705 0.0020775 -0.0049806 0.0065762 -0.0050529 0.0052271 -0.0031564 -0.0038706 0.0036762 -0.0029263 -0.005305 -0.0044907 -0.0032072 0.0015924 -0.0039832 0.0017626 -0.0016929 -0.00075125 0.0047174 0.00084986 -0.010142 -0.0027123 0.0018398 -0.0035331 0.0039217 0.00021616 0.0030073 -0.0077793 0.0031419 0.0017497 -0.0042776 0.0016639 -0.0088287 -0.0091328 -0.0033907 -0.0031379 -0.0047276 0.0056675 0.0068279 -0.0045281 -0.0054846 0.0004366 -0.0013846 -0.0040392 -0.0054752 0.0036219 
感觉 0.0057578 0.00016916 -0.0015175 0.00059462 0.00016899 -0.0026065 -0.00077117 -0.0045981 0.001052 0.0032716 -0.0066908 0.00083585 -0.0019952 6.3542e-05 -0.0064514 -0.0027589 -0.0058168 -0.0013249 -0.0038852 0.0088963 -0.0050631 0.0034822 0.0018075 -0.007297 0.0001516 0.0045369 0.00085779 -0.0063062 -0.0037265 0.0036403 -0.00041028 0.0021013 -0.0038738 0.0013243 0.0026475 -0.00069022 0.0047228 -0.0021527 -0.0040621 -0.004737 0.00081235 0.0028116 0.0031491 -0.0051321 -0.0034411 0.0018861 0.0087149 0.0022417 0.0031199 0.00073397 0.0020342 0.0012817 0.0011113 0.001174 0.0011924 0.00085283 -0.0041157 -0.0013348 0.0008675 0.0003954 -0.0059348 -0.0022311 -0.0066366 0.00070389 0.00098627 -0.004894 0.0042574 -0.0020765 -9.7266e-05 0.00050913 -0.0037586 -0.00046127 0.002285 -0.0030945 -0.0048341 0.0041795 0.0031617 0.0054146 0.0017898 0.0072114 0.0010479 -0.0021806 0.00067232 0.0023932 -0.0015453 0.0019938 0.0011827 -0.0034089 -0.0025637 0.003475 0.0017277 0.00035307 -0.0012587 0.00016449 -0.0035346 -0.0060205 -0.0002664 -0.0016486 9.8802e-05 0.0024698 
完美 0.0045249 0.015075 0.0013579 0.0027813 -0.0015147 0.0072264 -0.0047984 0.00067209 -0.0037515 0.0036845 0.0021156 -0.0036753 -0.004153 0.0015987 -0.0037333 0.0063432 8.8284e-05 -0.0047002 -0.0047527 -0.00095526 -0.0066715 -0.0095463 -0.0042606 0.0043152 -0.00019828 0.00025059 0.0056613 -0.0046025 -0.0080823 -0.0034725 0.0040023 -0.0019557 0.00072646 0.0011614 -0.0055908 -0.007936 0.0027737 -0.010614 -0.0038605 0.0022735 0.0048424 -0.0021521 0.0046523 0.0064129 0.0095349 -2.2921e-05 0.001013 0.0041901 -0.0029453 -0.0088106 1.7078e-05 -0.0032655 -0.0048042 0.00083775 -0.0034835 0.0066523 -0.0056869 0.0076011 2.1563e-05 0.0023344 0.0014345 -0.0052032 0.0022075 -0.006905 -0.0052119 -0.0093779 0.01078 -0.00068182 -0.007381 0.0067996 0.0064823 -0.00080641 0.000389 -0.0034494 1.168e-05 -0.0077322 0.0013441 -0.0038515 0.0069243 0.0018187 0.0066583 -0.0029636 0.0027529 0.0049353 0.0051114 0.0014916 -0.011503 -0.0078156 -0.0075775 -0.0075989 -0.01354 0.010488 0.004107 -0.006706 -0.0017576 0.003076 -0.001449 -0.0036521 1.5235e-05 0.0090163 
信念 0.001572 0.0073008 -0.00080235 0.0016613 -0.00084555 0.003106 -0.00060471 -0.0013416 -0.00070167 -2.353e-05 -0.0024639 0.0052613 -0.0024148 -0.00077833 0.0034224 -0.0015842 -0.00019055 0.0029287 -0.0054181 -0.00048632 -0.0020067 0.0024287 0.0047312 0.0028945 0.0022693 -0.0046348 0.0025625 0.00082143 -0.00047604 0.0012281 0.0058734 -0.0025031 0.00048432 -0.0029449 0.0008573 -0.0014041 0.0058196 -0.0021078 0.0012949 0.00086199 -0.0033647 0.0030691 0.0023945 0.0092246 0.0083173 0.002768 0.00030291 0.00048416 -0.0047156 -0.0033622 -0.0007697 -0.0018845 -0.0001129 0.0020706 -0.0018088 -0.00028882 0.0059862 0.0029948 0.002766 0.0038041 0.0036143 -0.0032176 0.0071176 -0.0018589 -0.0050618 -0.002036 0.0050703 0.00094389 -0.0024961 -0.00077308 -0.00064196 -0.00098323 0.0038643 0.0015502 -0.00085494 0.0021104 1.7069e-05 -0.0012392 0.0049841 0.00075068 0.00095754 -0.0080203 0.0045961 0.001522 0.0072002 0.0038095 -0.0047047 -0.0021723 -0.0014034 -0.00071281 0.0038656 0.00033912 0.0066905 0.0049991 0.0012729 -0.0038188 0.0043888 -0.0013467 0.0048834 0.0037357 
thing 0.00099173 0.0018734 -0.00086365 -0.0002958 -0.0054758 0.0022953 -0.005072 0.00065432 -0.0015115 0.0023748 0.0011666 0.00087178 -0.0058573 0.0021489 1.4065e-05 0.0015247 0.00019829 0.00053518 0.00028576 0.00040861 0.0017221 -0.0040942 -0.0014707 0.0039404 -0.0033362 0.0019722 -0.0011125 -0.0048716 -0.0031247 0.002496 0.004544 -0.0019424 -0.0030703 -0.00042918 -0.0028773 -0.0039619 0.0047052 -0.0024916 -0.0012444 0.002214 0.0011885 -0.00087409 0.0014937 0.00012203 0.0061139 -0.00020388 0.0024644 0.0024645 -0.0047749 -0.0025217 0.0011527 -0.0066772 -0.0010632 0.0045313 -0.0013342 0.0029386 -0.0029112 0.0044374 0.0015103 0.00076135 0.0023275 -0.0014834 0.0064328 -0.0016742 -0.0033897 -0.0014083 0.0022608 0.002783 -0.0028682 0.0015054 0.0019035 -0.0028081 0.0034751 0.00091813 -0.0029348 -0.00040444 0.0030124 0.00073274 0.0052594 0.0013509 0.0051056 -0.0054141 0.00093504 -0.001651 0.0015464 -0.00024773 -0.0066756 0.0025601 -0.0022053 -0.0048988 -0.0041902 0.0030937 0.0056012 -0.00065344 -0.00058366 -0.002056 0.0039855 -0.00105 -0.0011743 0.0054608 
good 0.0013542 0.0058857 -0.0023491 0.0017363 -0.00014504 0.0020935 -0.0023639 -0.00049347 -0.0012716 0.0029885 0.0017567 0.00099993 -0.0013946 0.0029115 7.7716e-05 0.0031153 0.00010781 -0.00016477 0.0012194 -0.00048422 -0.0005486 -0.001172 0.0011296 -1.8568e-05 0.00064345 0.0033634 -0.0016309 -0.0034974 0.0022248 0.00085602 -0.00037526 -0.0031485 0.00030008 0.00031346 0.00035052 0.0027738 0.0010745 -0.0045895 0.00017454 0.000961 0.00087829 0.0011268 0.00023788 0.00038325 0.0034472 -0.00073869 -0.0011271 0.0024596 -0.00095449 -0.0032506 0.001325 -0.0017601 0.00014747 0.00067685 -0.00087858 -0.0011242 -0.0051831 -0.00061507 0.00035119 0.0010801 0.0012621 -0.0024509 0.003664 0.00057245 7.1889e-05 -0.0023445 0.0043494 -0.0026688 -0.0038032 0.00046407 0.00072597 0.00073733 0.0022014 -8.8766e-05 -0.0017417 -0.0024876 0.0044872 -0.0013323 0.0025068 -0.0019556 0.0011029 -0.0042389 0.0014649 -0.0012786 0.0024596 0.0011391 -0.0016438 0.0018119 -0.0020015 -0.0023043 0.00027172 0.0012407 0.0035316 -0.0014154 -0.0017704 -0.001063 0.0024485 0.00065776 -0.0015672 0.0028285 
看过 0.0058587 0.0046898 0.0052533 -0.0010552 0.0029673 0.0036789 -0.0066118 0.0013635 -0.0076788 0.0013072 0.00012397 0.0028237 -0.0035836 -0.0027318 -0.0034903 0.0049277 -0.00066901 -0.0039189 -0.0034858 -0.0012597 -0.0032349 -0.0022382 0.00018114 0.0037224 0.0010289 0.0020422 -8.1922e-05 -0.002794 -0.0031241 0.002567 0.0032397 -5.8035e-05 0.00049346 0.0040518 -0.0068636 -0.0040739 0.001737 -0.0011515 -0.0035183 0.0021054 -0.00031241 0.00033011 -0.0016324 0.004048 0.0047192 0.0010325 0.0030195 0.002044 -0.0018568 -0.0097527 -0.0030404 0.001806 -0.0010303 0.000449 -0.0031565 0.003672 0.0041597 0.0046301 -0.0050644 -0.0030953 0.0006885 -0.00083598 -0.0024029 -0.0066478 -0.0053561 0.00088264 0.0032605 0.00029599 -0.0015874 0.0019517 -0.0049422 -0.00025442 0.0026413 -0.0028777 -0.0030557 0.0011994 0.00071745 0.00065668 0.007789 0.00023874 0.0062224 -0.002838 -0.0021735 0.0016523 -0.0010079 0.00072714 -0.0075727 0.00080331 0.00034965 -0.0048817 0.00028786 0.0051963 0.0055863 -0.0031496 -5.955e-06 -0.0014085 -0.0016478 0.0036931 -0.00081159 0.0032216 
东西 -0.0022782 -0.0002382 0.00015359 0.003857 -0.0038087 0.0059576 0.002594 -0.0028651 0.00017106 0.0025272 -0.00081026 0.0047965 -0.00066126 0.0040187 0.0013458 -0.00088713 -0.00019437 -0.0025211 0.0024539 0.00083008 0.00015773 -0.0055912 -0.0017015 0.0038717 -0.0037049 -0.0033896 -0.0034402 -0.0030219 0.0027609 0.0051076 -0.0046971 -0.0022537 -0.0021893 -0.0018829 -0.0029284 -0.0011328 0.0052462 0.00035729 0.0047574 0.0050486 -0.00063294 0.0026136 0.00087294 0.00131 0.010654 0.0010038 -0.0013126 0.0013774 -0.0056342 -0.0018153 0.00099528 -0.0047089 -0.0028364 0.0037523 -0.0057582 -0.0019811 -0.0033195 0.0019501 -0.00092928 -0.0017628 -0.0011677 0.00019304 -0.0031251 -0.0017099 -0.0022972 -0.0065019 0.00025792 0.0021842 -0.0061258 -0.00010289 0.00028184 0.0016958 -0.00039536 -0.00031642 -0.0060135 0.0027802 -0.0021479 -0.0025086 0.0016931 1.3349e-05 0.0096684 -0.0018856 0.0013487 -0.00017839 0.0085782 0.0035735 -0.0050339 0.0019069 -0.0084625 -0.0031087 -0.00033567 0.0047688 -0.0019532 0.0015063 -0.0096632 0.00046397 -0.0014805 -0.0016778 -0.0036033 0.005732 
電影 0.0077566 0.017294 0.0023335 0.0028643 -0.0024445 0.011121 -0.019601 0.003219 -0.0071782 -0.0007885 0.0017018 0.011609 -0.0090339 -0.0021736 -0.0040636 0.00099291 0.0011257 0.0017388 0.0037812 -0.0032402 -0.002073 -0.011288 0.0017012 0.0085588 -0.00094452 -0.000772 0.0014429 -0.01126 0.0035419 0.0050265 0.0042808 0.0015456 -0.0015992 0.0067668 -0.0072097 -0.0052664 0.0027629 -0.00093796 -0.008513 0.0061195 0.015173 0.0013943 0.0064696 0.00097938 0.015942 -0.0038052 0.0024767 0.0018558 -0.0084597 -0.0078043 0.0046791 -0.0098495 -0.010067 0.0028364 -0.0065798 0.0061193 -0.0034987 0.01249 -0.003862 -0.00041949 0.0047283 -0.00046615 0.011873 -0.010219 -0.0079609 -0.007874 0.010318 0.0039798 -0.0060165 0.0048484 0.00031329 0.00014911 0.002393 0.0016559 -0.0070906 -0.0044203 0.0042204 0.0044823 0.012874 0.0053772 0.0096857 -0.022181 0.0097938 0.0018737 0.0039049 0.0070315 -0.016432 -0.0053664 -0.0066246 -0.012521 -0.0015055 0.0036502 0.0087393 -0.0010635 -0.00092607 -0.0082067 0.0035781 0.0029226 -0.0041081 0.010177 
大众 0.0040161 0.0047616 0.0079634 0.0050812 -0.0024582 0.007613 -0.0040407 -0.0015813 -0.0021972 0.0030968 -0.00070694 0.0037829 0.0040494 0.00025089 -0.0043624 -0.00036693 0.00080162 0.0076499 -0.0033277 -0.001551 -0.00086403 0.0014868 -0.0017918 -0.0019214 -0.0047606 0.0024962 -0.0018001 -0.0012955 -0.0041956 -0.0048571 -0.00053721 0.0044605 0.0015861 0.00050075 -0.0033187 0.002924 0.0070486 -0.0034838 -0.0019266 0.0012592 0.00258 -0.0034788 0.00081163 0.00031024 0.0054374 0.00078372 0.0058569 0.0030729 -0.0076482 -0.0051237 0.004305 0.0033042 -0.0021405 0.0023785 -0.0071687 0.0031839 -0.00020996 0.0066887 0.0013381 0.0015637 0.0026447 0.00019532 0.0017524 -0.0022501 0.0026789 -0.0075734 0.010906 0.0032128 0.000149 0.0057659 0.0021801 -0.0038815 -0.00075429 -0.0016436 -0.0042521 0.0024331 0.00053758 -0.0025268 0.0065021 -0.0062749 -0.001056 -0.0027412 0.0014349 -0.0010136 0.0026345 0.0015508 -0.00090445 0.00081315 -0.00089201 -0.0070376 0.0017927 -0.00045647 0.0016866 -0.0039975 -0.00131 -0.00049179 0.0023066 0.0026062 -0.0002083 -0.002884 
男人 -0.0045394 0.0078334 0.0026132 0.0060515 -0.0064795 -0.00049939 -0.0057094 0.0015943 -0.0014217 -0.0028675 -0.00047451 -0.0032788 -0.0038838 0.0067516 -0.0047752 0.002111 0.0047037 -0.00028221 -0.0019307 0.0014736 -0.00095037 -0.00034807 -0.0027788 0.00061139 -0.003879 -0.00077804 -0.0040037 -0.0020098 0.0021898 -0.00089438 -0.0019917 -0.0041291 -0.0015975 0.00022698 0.0002301 -0.0028391 0.0044631 0.0020983 0.0007158 0.0043312 -0.0037398 -0.0049943 -0.0029922 0.0055655 0.0075501 0.0026378 -0.00067521 -0.0012288 0.0028594 -0.003137 0.003457 -0.0028932 -0.0021523 -0.00042033 0.00017527 0.001113 -0.00056769 0.0017442 0.0057218 0.00073434 0.0020903 0.004635 0.0035821 -0.0021121 0.0028025 -0.0033685 -0.0064127 -0.0022266 -0.0019341 0.0024115 0.002118 0.0020673 0.002288 -0.0038292 0.0017976 -0.00094115 0.0048522 -0.0053931 0.0032517 -0.00057795 -0.0016375 -0.0078186 -0.0026351 -0.00045689 0.0049203 -0.0013451 -0.0058221 -0.0018896 -0.0033445 -0.0054306 -0.004775 0.002396 0.0025696 -0.0021305 -0.0006336 -0.00066606 0.00018655 -0.00063538 -0.001082 0.0061153 
Shawshank 0.002615 0.013789 0.00029875 0.0035397 -0.0079217 0.0089462 -0.010294 0.0027522 -0.0048367 0.0021916 0.001913 0.0029945 -0.0067613 0.0042635 -0.005024 0.0038275 -0.0014659 -0.0022246 -0.0025681 0.0012063 -0.0021969 -0.0059193 -0.0028397 0.006592 -0.0026919 -0.0009836 0.0045352 -0.0065711 0.0021435 0.0017716 -5.1332e-05 -0.0019092 0.0010191 0.0046833 -0.007249 -0.00602 0.0074362 -0.0073926 -0.0042033 0.0060275 0.0092713 -0.0038663 0.0032049 0.0055099 0.013392 -0.0012419 0.0017218 0.0038468 -0.01363 -0.0084082 0.0082487 -0.011657 -0.0045623 0.0050113 -0.0014035 0.0065413 -0.0036112 0.015751 -0.0032087 0.0011744 0.0029946 -0.0034011 0.0078331 -0.010732 -0.0046756 -0.0096558 0.0071066 0.0033185 -0.0076301 0.0019378 0.0059298 -0.003099 0.0062113 -0.0022176 -0.0044029 -0.0010441 0.0046293 0.00010165 0.014131 0.0022356 0.015229 -0.01336 0.0027117 -0.00016414 0.0066705 0.0027471 -0.015241 -0.0047389 -0.0081306 -0.011411 -0.0065151 0.0071652 0.0086751 -0.0059381 -0.0060361 -0.0055214 0.0046914 0.0014398 -0.0068399 0.013803 
生活 -0.0012965 0.0062692 0.00092924 0.0075225 -0.0030069 0.001426 -0.0079226 0.001816 0.0033828 -0.0034078 -0.0013039 0.0045504 -0.0016406 0.0028245 -0.0056416 0.0067435 0.0014032 -0.00054134 -0.0022165 0.0032829 -0.0023397 -0.0011636 -0.0018609 0.0013299 0.0038853 0.0054153 0.00069963 -0.0064206 -0.0048623 0.0021644 0.0071322 -0.0032382 -0.0019686 -0.0033009 -0.0022459 -0.0010092 -0.0014121 -0.0087304 0.00095522 -0.0021203 0.00028379 0.00091667 0.0044353 0.0014124 -0.0027578 0.0072729 -7.0157e-05 -0.00069556 -0.0059097 -0.0031401 0.00013574 -0.003038 0.00036841 0.0036171 0.0011747 0.0053677 -0.0046953 0.0082062 -0.0024366 0.0033019 -0.00036394 -0.0040224 0.0054884 -0.0023132 -0.0026553 -0.007456 0.0043243 0.00097968 -0.0031481 0.00099818 -0.0031183 -0.0019808 -0.00099956 -0.0030842 -0.0034258 -0.0041636 0.002707 0.0017131 0.0070247 0.00082537 0.0066827 -0.0066836 0.00075653 -0.00064599 0.0019402 0.0016711 -0.0057506 -0.0037265 0.0019779 -0.0061383 -0.0053752 -0.0009439 -0.00074222 -0.005699 -0.0010733 -0.0054638 -0.00064624 0.00028663 -0.0079148 0.00067411 
hope -0.0026637 0.0037387 0.00080073 -0.0019952 -0.0024539 0.0025306 -0.0042527 -0.0019582 -0.0028124 0.0012705 -0.00065799 0.0010501 -0.0016888 0.0019741 -0.00247 -0.0023443 -0.00043554 0.0026923 0.00094644 0.0036612 -0.0030348 -0.0037379 -0.00059421 0.0040838 -0.0025719 0.00072063 0.001203 -0.0031826 0.0018471 -0.0011269 -0.0010896 0.00018853 0.0026597 0.0033227 -0.0039233 -0.0038574 0.00085177 -0.0026486 0.0011522 0.004111 0.00076175 -5.4564e-05 0.00036156 -7.5152e-05 0.00097587 -0.00051095 7.7201e-05 3.6668e-05 -0.0024596 -0.00092463 -0.0021976 -0.0037341 0.00191 0.00177 -0.0014007 0.0011596 -0.0015713 0.001067 0.00037053 0.0010921 0.0043474 -0.0044689 0.0017697 -0.0018465 -0.00046973 -0.0017772 0.0018148 0.0012758 -0.0026427 0.001759 -0.0011277 -0.0020047 3.2712e-06 0.00020914 -0.00069577 -0.0010453 0.0017541 -4.4288e-05 0.0052797 0.0006002 0.0031685 -0.0035289 0.0022018 -0.0025645 0.00093967 0.00040683 -0.0013612 0.0014786 -0.002262 0.00040841 -0.0019905 -0.00031879 0.00082285 -0.0018892 -0.0016498 0.00056043 0.0049746 -0.00049328 -0.0017079 0.0011401 
监狱 0.0043831 0.00055914 0.003082 0.004204 -0.0017798 0.007936 -0.009039 -0.0034274 -0.00064259 0.0048383 0.0002942 0.00047778 -0.0062183 0.0046186 -0.0062975 -0.0057857 -0.00033245 -0.0066454 -0.0063057 0.0040084 0.00079659 0.00017847 -0.0044204 0.0011188 -0.0020888 0.002253 -0.00056348 -0.0027352 0.0044387 0.0044126 0.002937 -0.0018195 -0.0031236 -0.00095558 -0.0063917 -0.00034821 -0.0018411 -0.00032946 -0.0020171 0.0064933 0.0063384 -0.0052913 0.0046641 0.0057098 0.0062967 -0.00378 0.007234 0.00034535 -0.0053752 0.00028296 0.003455 -0.0076658 -0.0031846 0.0067471 -0.0049139 -0.0037208 -0.0038856 0.0086611 -0.00089339 0.0018171 0.00645 -0.0049517 0.0044919 -0.0048682 -0.0060523 -0.0049037 0.0035973 -0.004567 -0.0069538 0.0013145 0.0023203 -0.0030412 0.0020438 0.0021879 -0.0058247 0.0020018 0.0058435 -0.0060237 0.0037008 0.0023929 0.012408 -0.0049156 0.0031193 0.0074155 0.0058365 0.0060099 -0.01189 -0.0003672 0.00049376 -0.0089748 -0.0075596 0.0034948 0.012249 -0.0073108 -0.00031819 -0.00038413 0.00034815 -0.0010624 0.0013042 0.00086864 
永远 -0.00014119 0.011586 0.0019697 0.0028341 -0.0041076 0.0032826 -0.0050484 5.6712e-05 -0.0085665 0.0004102 0.0016158 0.0031691 -0.006935 0.0032987 -0.0051095 0.0046129 0.0031184 -0.00025264 -0.0050266 0.00094598 -0.0044725 -0.0039224 -0.0041348 0.0030208 -0.0048165 -0.0022878 0.0023082 -0.0035573 -0.00018373 -0.00021684 -0.0014635 -0.0028308 0.0044275 0.0014009 -0.0033474 -0.0061995 0.0021876 -0.0064386 7.5666e-05 0.0024244 0.0065889 -0.0014905 0.0022458 0.0018836 0.0038891 -0.0023357 0.0044848 0.0023645 -0.0034582 -0.003515 0.0053557 -0.010862 0.0015913 0.0027065 -0.0073204 0.0055545 -0.0042325 0.010902 0.0033435 0.0032069 0.0064892 -0.0029638 0.0043409 -0.0032256 0.0012133 -0.0013082 0.0043526 0.0075907 -0.0072019 -0.00057964 0.002558 0.00074969 -0.00029061 -0.0040948 -0.002562 0.0020028 0.0056419 -0.0020736 0.0087795 0.0052478 0.0049393 -0.008042 0.0019532 0.0010611 0.0013261 0.0042166 -0.0080294 -0.0024875 -0.0086659 -0.0032204 -0.0051573 0.00029104 0.0085851 0.0010538 -0.0070261 0.0013238 0.00036001 0.00099051 -8.7382e-05 0.0097687 
体制 0.0030322 0.010401 -0.0006292 0.0021317 -0.0038336 0.013712 -0.0076119 0.0020522 0.00060767 0.0039365 0.0062185 -0.00045068 -0.0068478 0.0055147 -0.00097766 0.0019051 -0.0027718 -0.0010898 0.00040426 -0.00090633 -0.0013898 -0.0043936 -0.0011078 0.0051685 -0.0029015 -0.0057585 0.0058163 -0.0039542 -0.00087028 0.004695 0.0019548 -0.0025249 0.0053542 0.00017843 0.00037231 -0.0066179 0.0030731 -0.0063232 0.0040185 0.0059697 0.0065925 -0.0020961 0.0019696 0.0044023 0.010404 -0.0070955 0.0047189 0.0039038 -0.0080396 -0.0070221 0.0075148 -0.0026783 -0.0061867 0.0089443 -0.00226 0.0070959 -0.0091514 0.014905 -0.0029476 0.0074165 0.0018487 -0.004537 0.013477 -0.010225 -0.0042835 -0.0085501 0.0035569 0.0014269 -0.0068854 0.0051299 0.0032305 -0.0064675 0.0050199 -0.0024496 -0.0049902 -0.0019074 0.0037772 0.0020399 0.0013682 -0.0010273 0.0073623 -0.0076236 0.0081382 0.0040713 0.0084625 0.0037062 -0.0076281 -0.0018156 -0.0031555 -0.0097969 -0.0037083 0.0034157 0.0034484 -0.0044862 -0.0093832 -0.0023623 0.0071715 -0.00771 -0.001139 0.0092109 
生命 -0.0019828 0.0024984 0.0074615 0.00046023 -0.0069955 0.00090853 -0.0012914 -0.0031477 -0.0048233 0.0022461 0.0018942 -0.0045316 0.0046997 -0.0019529 0.0024927 -0.0019307 0.0019327 0.001309 7.4522e-05 -0.0037158 -0.0046893 -0.0049066 -0.0022911 -0.003043 0.0011506 -0.0037547 0.0002797 0.00068055 0.0032752 -0.0010207 -0.0015416 -0.0031483 0.0026039 0.0063037 -0.00016912 0.0032809 -0.00067715 -0.0011228 -0.0044585 0.0070437 0.0063799 0.0017699 -0.0040541 0.0042269 0.0012926 -0.00085443 0.00090379 0.001737 -0.0024468 -0.0017083 0.0038812 -0.0021051 0.0015535 -0.0013276 -0.00051749 0.0044425 -0.0012901 0.0023841 -0.0035572 0.0050249 0.0021865 -0.0023467 -0.00061726 -5.9092e-05 0.00018793 0.0037106 0.0026743 0.0010134 -0.0057673 -0.0047613 -0.0026173 -0.0037724 -0.00049121 0.0013689 0.00018634 -0.0034034 -0.0025528 -0.0042589 0.0038887 -0.0021788 0.0044966 -0.0055244 0.0045618 -0.0023025 0.0014041 -0.0026078 -0.0060418 -0.00027703 -0.0033975 -0.0066767 -0.0043456 -0.0046447 0.0024997 -0.0054186 0.0022098 0.0039843 0.00024835 -0.0031011 -0.00028806 0.00026 
不错 -0.00098871 0.0017211 -0.0006229 0.0061401 -0.0045667 0.004345 0.0016789 0.00099763 0.00062528 -0.001986 0.00013231 -4.9874e-05 -0.0047 0.0028881 -0.0051349 0.0015051 -0.00055233 7.526e-05 0.0011279 -0.0040948 -0.0032143 -0.0038758 -0.00057651 0.0037987 -0.00089949 -0.0033028 0.0010404 -0.0055815 -0.0050327 0.0021673 0.0018748 0.0034306 -0.0044051 -0.0023394 -0.0047359 -0.00027334 -0.0013998 -0.0089848 -0.0018777 0.0045038 0.0027837 -0.0019093 0.0042533 0.00068826 0.0030543 0.0012 -0.0022828 -0.0048051 -0.008789 -0.004081 -0.00070144 -0.0035697 -0.0049129 -0.0042897 0.001152 0.0026187 -0.0012525 0.0071895 0.00080096 0.0020119 0.0021488 -0.0028368 -0.0012197 -0.003906 -0.0047355 -0.0037906 0.0016092 0.0006691 -0.00906 -0.0021296 0.0033623 -0.0045977 0.005863 0.0029982 -0.00087595 0.00038115 0.00079742 -0.0016095 0.0017322 0.002325 0.010337 -0.0088996 -0.0018531 0.0029168 0.00080445 0.0076836 -0.0071895 -0.0013895 -0.001096 -0.0023973 -0.00046861 0.0067878 0.0024974 -0.0047672 0.0021284 0.0012312 0.00027827 0.0067393 -0.0062424 0.0083259 
只能 0.0064866 0.0045916 -0.00024124 0.0028422 -0.0049098 0.010327 0.00172 -6.8558e-05 0.003489 0.00071513 0.00060931 0.0022055 -0.0048877 0.0055949 -0.0016973 -0.00087852 -0.0063978 0.0035365 0.0034394 5.1704e-05 -0.0032714 -0.0019636 -0.0042821 -0.0019073 -0.00027398 -0.0049182 0.0044337 -0.0032277 0.0055299 0.002814 0.0045506 -0.00077224 -0.0024578 0.0011144 -0.0049756 -0.00245 0.0031273 0.00030456 -0.00044933 -0.003971 0.0028757 -0.00031559 0.0004741 0.0044567 0.0039409 -0.0044153 -0.004333 0.0037828 -0.0021425 -0.0029316 0.00057676 -0.0026895 -0.0017221 0.0033318 0.0034664 -0.0025713 -0.00052485 0.0029468 0.00061496 0.0047312 0.00060485 -0.0074954 0.0053916 -0.0020393 -0.001428 -0.0024548 -0.0035462 0.0020265 -0.0032746 0.0025233 0.0010979 -0.0018461 0.0053062 0.0014716 -0.0071952 -0.0020378 0.0064515 0.0023413 0.010554 -0.0027963 0.0054065 -0.001386 0.0066784 0.0037308 -0.0019127 -0.00014487 -0.0015825 0.0027624 -0.001331 0.0013566 -0.0083421 -0.00063837 0.0020588 -0.0044178 -0.0024889 -0.0060903 0.0017425 -0.00078382 0.0017133 0.0011168 
故事 0.0044293 0.0073704 0.0045005 0.005231 0.0046003 0.0042269 0.0028335 -0.0016023 -0.0033458 0.0025758 0.0028011 0.0073429 -0.0055698 0.0019983 0.0016554 -0.00093678 0.00023392 -0.00086565 -0.0037586 -0.0052067 -0.00088228 -0.0022571 -0.0053681 0.003141 -0.003279 0.0023052 -0.0024685 -0.0049559 0.003381 -0.00053789 -0.001458 0.0010743 -0.0017219 0.0014169 -0.0033454 0.0010006 0.0015269 9.5969e-05 -0.0018666 -0.0036601 -0.00063412 -0.0030499 0.002706 -0.00082435 0.0042862 0.0033307 0.0025845 0.0018672 -0.0011126 -0.0017365 0.0053735 -0.0046855 -0.00059273 0.0014381 -0.0036497 0.0022956 -0.0034486 0.00060456 -0.0020886 0.0011425 0.0013521 -0.0022554 0.0024358 -0.0014353 -0.003953 -0.0074072 0.0024246 0.0071611 -0.0064534 0.0048699 -0.00095727 0.0010803 -4.7532e-05 0.002243 -0.0057648 -0.00045672 0.0054098 -0.00011326 0.005058 -0.004266 0.0066175 -0.0084917 0.0022559 -0.0010457 0.0013104 0.0015144 -0.0035247 0.0010305 -0.0014762 -0.0081129 0.00039809 0.0019448 0.003922 0.0008005 -0.0011889 -0.002654 0.00040374 -0.0012847 -0.00069749 0.001119 
精彩 0.0036782 0.0016176 0.0049893 0.0010625 -0.0029364 0.0054637 -0.0020099 0.00080449 -0.0023713 -0.0021922 0.0027193 0.0016805 0.0039746 0.0030793 -0.005581 0.0079237 0.0030003 0.0012858 -0.00061784 -0.0028538 -0.00048706 -0.0026766 -0.0026155 0.0011004 -0.0018757 -0.00092482 0.0010378 0.00013379 0.0023151 0.0013672 -1.6088e-05 0.0056481 -0.00026336 0.0041689 -0.00064626 -0.0011192 0.006891 -0.0050788 -0.001354 0.0016138 0.0031944 -0.0017987 0.0012377 0.0052718 0.006733 -0.0034478 0.0050799 0.0017018 -0.0070032 -0.00099 0.0017935 -0.0073546 -0.0029991 0.0027592 -0.005447 0.0055818 0.0010391 0.010923 0.00026372 0.0052822 0.0033554 -0.0047727 0.0041593 -0.0020995 -0.0021115 -0.0053174 0.0041469 0.0054317 -0.00014907 0.0048064 -0.0021885 -0.0022571 0.003768 -0.004423 -0.0091108 -0.00072187 0.0033916 0.0040357 0.0068632 0.0041785 0.0077943 -0.0097902 -9.3862e-06 0.0029907 0.00388 0.004127 -0.0080993 0.0016358 0.0011924 0.001311 -0.0075949 0.00093858 0.006788 -0.0081352 0.00039882 -0.0016751 0.0038524 0.00039406 -0.0036326 0.0074532 
心灵 0.0015595 0.0061632 0.003407 -0.00038885 -0.001536 0.0039483 0.00090321 0.0023902 -0.0067833 0.00090846 -0.0024063 0.0015259 -0.0018015 0.0051363 -0.00387 0.0051849 0.0026288 -0.0040724 0.00068967 0.00040065 -0.00020005 -0.0040499 0.0017783 0.0027685 0.0010402 -0.0044218 0.002965 -9.9308e-05 0.0025333 -0.00086783 0.0023218 -0.0019745 0.0020988 0.0079041 -0.0037079 -0.0078813 0.00507 -0.0034858 0.0013407 0.0008869 0.0032908 -0.0024849 -0.0035914 -0.00025549 0.0080621 -0.0049342 -0.00032956 -0.00057909 0.00047534 -0.0020383 0.0056394 0.0053901 -0.0057415 0.0017288 -0.0041866 0.0046127 -0.0011991 0.0049144 -0.0032978 0.00024709 -0.0036278 -0.0019137 0.0059073 0.0028793 -0.0083387 -0.0045512 0.0067252 0.0064369 -0.0013797 -0.0015072 0.0005039 0.002639 -0.00058943 0.0044998 0.0042059 0.0040334 8.6058e-05 -0.00074104 0.0029916 -0.0024417 0.0028402 -0.0059489 -0.0027561 0.0011153 0.00088374 0.00086832 -0.0085925 0.00071429 0.00068607 -0.010055 -0.0015935 -0.0011344 0.003218 -0.00054228 0.0024949 0.0026719 -0.0036002 0.0068243 -0.0040503 0.0044566 
要命 0.0019516 -0.0022492 0.0022694 -6.2392e-05 0.0033589 0.0033228 -0.0012583 0.00084237 -0.00081465 -0.0008575 -0.00091639 0.00070962 0.0037908 -0.00087894 -0.0041216 0.0016991 -0.0015075 0.0015486 0.00017274 0.0030748 -0.0032739 -0.0024669 -0.0018735 -0.0029537 0.0010623 -0.0021134 -0.003345 0.0031923 0.0012175 0.00059051 0.0047456 0.0035501 0.00072875 0.0015242 -0.0058785 0.0021786 -0.00098945 0.00051363 -0.0046447 3.0104e-05 -0.0023227 -0.0059109 0.0015751 -0.0033876 -0.00083348 0.0030954 0.0034082 -0.0023114 0.00073254 -0.0010979 0.0043309 -0.00084994 -0.0010703 0.00324 0.0042409 0.0017605 -0.0069367 -0.0018501 0.001216 -0.00095315 0.0024166 -0.00091544 0.0052359 -0.0041572 -0.0025662 4.7858e-05 -0.0020807 0.0046655 -0.0020226 -0.0038868 -0.0014619 0.0030345 0.0010012 0.003894 0.00011671 0.00022875 -0.0038831 -0.0018958 -0.00063654 0.0041898 0.0027702 -0.0023116 -0.0027936 -0.0052273 -0.0045188 0.0031906 0.0035473 -0.0044267 -0.0014364 -0.0068905 0.000502 -0.0042809 0.00081396 0.0015764 -0.0025522 -5.4295e-05 0.0026142 -0.0023548 -0.0063888 0.0061391 
一部 0.0031991 0.0058152 0.0024482 0.002082 0.0010281 0.0078911 -0.00095485 0.00091298 -0.0015436 -0.00036936 0.0019059 0.0048829 -0.0053145 0.005435 -0.0062077 0.0040288 0.0013218 -0.001663 -0.0014556 -0.0045974 0.0028561 -0.0016637 -0.0033791 -0.0027091 -0.00090988 0.0025068 -0.0048485 0.00020924 0.00019805 0.00026976 -0.0014866 0.0029036 0.0053056 0.001844 -0.0054773 -0.005883 0.0054628 0.0015245 -0.0051041 0.0023288 -0.0014029 -0.0025136 0.0029987 -9.2796e-05 0.0034393 0.00017194 -0.0046521 -0.0042389 -0.00093473 -0.00083492 0.0014419 -0.0036437 -0.0049823 0.0062147 -0.0045384 0.0023467 -0.0046406 0.0022806 0.002185 0.0021937 -0.0010338 0.00038013 0.005696 -0.0054731 -0.00049463 -0.004953 0.0037989 0.0038254 0.0013085 -0.0021056 0.0049423 -0.0038135 -0.00065812 0.0047018 0.0022453 0.0052774 5.7767e-05 -0.0018111 0.0078828 -0.0043298 0.0057838 -0.0038778 -0.00036593 -0.0038481 0.0011768 -0.0023526 0.00081595 8.1775e-05 -0.0013433 0.0020832 -0.0080906 0.0061634 0.00042691 -0.0018447 0.00057601 -0.00128 0.00010766 0.0027593 0.0022754 0.0027743 
自我 0.0063664 0.0048294 -0.0033805 -0.0024305 -0.0043963 -0.0019258 -0.0033975 0.0011288 0.00064782 -0.0013422 7.7644e-05 0.0020594 -0.0018538 0.0016017 -0.0011788 -0.0025938 -0.0068564 -0.0029932 -0.0040918 -0.00014136 0.00013229 -0.005033 -0.00018192 0.00073206 0.0046536 -0.0025813 0.0021793 0.00071463 0.0011204 0.002999 -0.0016415 0.0013426 -0.0028728 0.0047083 -0.0027519 -0.00016016 0.001939 -0.0049775 0.00035987 0.0055808 0.0015409 -0.0044692 0.0026006 0.0014825 0.004567 0.0013129 0.0017383 0.0029673 0.00062127 -0.00061219 -0.001317 -0.0027181 0.0034987 -0.0036772 -0.0035515 -0.0015151 -0.0026208 0.0064666 -0.0053973 -0.00093787 0.0017376 -0.0035526 0.0020123 -0.0028759 -0.0088133 -0.0013685 0.0010134 -0.0018342 -0.0065136 0.0010091 0.0054477 0.0019924 0.004143 0.00085058 -0.0056136 -0.0018035 0.0049844 -0.004916 -0.0011468 -0.0011673 0.0047669 -0.0044844 0.0030509 -0.0011614 0.0039235 0.0052095 -0.0069149 -0.0026506 -0.0063963 -0.0031083 -0.0020263 0.0029812 0.0014689 -0.0028008 -0.0028033 -0.0020897 0.00051921 0.0026576 -0.0059766 0.0012004 
弗里 -0.0012951 0.0034563 0.0057057 0.0017728 -0.0050821 -0.0010058 -0.0017067 -0.0070566 0.0022066 0.0042432 -0.00030613 0.0031804 0.0012874 -0.0012817 0.0030063 -0.00072221 -0.002468 0.0053431 -0.0037075 -0.0013701 2.3453e-06 -0.0021677 0.004158 0.0021713 0.00063285 0.00010865 -0.0023917 0.0016824 -0.00042173 0.0015077 -0.0046353 0.0062861 0.0022331 0.0072234 0.0017376 -0.0018831 -0.00043087 0.0036349 -0.0051684 -0.0049496 -0.0027378 -0.0040361 -0.0007731 0.0025733 0.0024607 0.0047093 -0.0024603 0.003452 -0.003074 -0.00082573 -0.0050239 -0.00086517 -0.0010199 0.0027387 -0.00041274 -0.00018839 0.001284 -0.0002534 0.0045567 0.00047688 -0.0020963 0.0029992 0.0002566 0.0024011 0.0014458 -0.0022622 0.0045815 0.005222 0.00044423 -0.00070923 -0.0017485 -0.0040728 -0.00084568 0.0037386 -0.0017717 -0.0012434 0.0019893 -0.0042628 -0.0014836 0.0035007 0.0039813 -0.0030317 -0.0020467 -0.0026022 0.0016871 -0.0047822 0.00063523 -0.0013675 -0.0018376 -0.00047253 -0.0037906 0.0038978 -0.0013154 0.0040283 -0.00047031 -0.0022012 -0.0031509 1.2788e-05 -0.00086936 0.0030984 
第一 0.00015404 0.0065352 0.0024366 0.0077378 -0.0089362 0.0056753 -0.0022028 0.0020164 -0.00060271 0.0051304 -0.00030161 0.0028513 -0.0061569 0.00086015 -0.0055794 -2.4718e-05 -0.0011939 0.00064078 -0.0032242 0.0069818 -0.0028157 -0.0048986 -0.0044021 0.0063637 -0.00010307 0.00086202 -0.00059704 0.00073812 -0.0035016 0.0015573 0.0024856 0.002009 -0.0025554 0.0018197 -0.0015129 -0.0067369 0.0040852 -0.0082675 -0.00090004 0.0055064 0.0026 -0.0069561 0.0012912 0.0029161 0.0041911 0.0024891 0.0048067 -0.0012758 -0.00739 -0.0038807 0.00097071 -0.0059042 -0.0020094 0.005054 -0.001511 0.0034933 -0.0034473 0.0054272 -0.0056153 0.0030038 0.0018168 -0.0031493 0.0045525 -0.010435 -0.0098686 -0.0033952 0.0065896 0.0094726 -0.0025265 -0.00070701 0.0072096 0.0037802 0.0065321 0.0026889 -0.000882 -0.0083834 0.009423 0.0013821 0.010085 0.0046054 0.01164 -0.0077942 -0.0002302 0.0045287 0.0023581 0.0012154 -0.0072358 -0.0086086 -0.0040424 -0.0081353 -0.0075413 0.0041074 0.0030878 -0.0047276 -0.00078147 -0.0061204 0.00052386 -0.0022196 -0.0022906 0.0075461 
好片 0.00095516 0.0036826 0.0022918 0.0041101 -0.0016315 -0.0052598 0.0020787 0.0033966 -0.001798 0.00075968 -0.0035155 0.004461 0.0024068 -0.0003711 -0.00071695 -0.0036375 -0.00185 -0.0034329 -0.0022281 0.0020022 -0.00012382 -0.0030415 0.0071252 0.0046175 0.0019863 0.0016606 0.0028109 0.00029461 0.00061279 0.0034713 -0.002229 0.0039929 -0.0010712 -0.0024469 -0.0039399 0.00031271 0.0034498 -0.0051069 -0.0012375 -0.005538 0.0049494 -0.0034683 0.00075179 0.0010542 0.0013097 0.00050754 0.0003194 -0.0030481 0.0045423 0.0053531 -0.0038538 -0.0011262 -0.0019249 0.0016864 0.0044947 -0.0054227 0.0019618 0.00039409 -0.0024176 0.0015642 -0.00060803 -0.0043814 0.0068489 0.00049404 0.00021389 0.0019475 0.00092175 -0.001613 -0.0028642 -0.0030198 -0.00036804 -0.00027372 -0.002688 0.003682 0.0011616 -0.0011748 -0.00062672 0.003428 -0.0011411 0.0037388 0.0093996 -0.0083754 -0.0022415 -0.0018184 -0.0011264 0.00021183 0.00058072 -0.0023009 0.00093647 0.0023173 0.00022687 0.0013236 0.0020023 -0.00093419 -0.0042202 0.002444 -0.001911 -0.0030715 -0.0006396 -0.00013186 
基督山 0.0027339 0.0099334 0.0021127 0.0036045 -0.00032089 0.0076644 -0.0018888 -0.00070293 -0.0039996 0.00082057 0.0063929 0.0010138 -0.0035711 0.0016767 -0.0059497 0.0041676 -0.00022364 0.0027985 -0.00016925 0.0050937 -7.4332e-05 -0.0037302 -0.00088527 0.0034879 -0.00084652 0.0028122 0.0024582 -0.0058066 -0.00022461 0.0013825 -0.00072293 0.0029311 -0.0032206 0.00113 -0.00047652 -0.0052278 0.0044828 -0.0049853 -0.00023684 9.0189e-05 0.0079358 -0.0050846 0.0012887 0.0026959 0.010264 -0.0037949 0.004772 0.0031881 -0.0081174 -0.0027367 0.00291 -0.003638 -0.0034354 0.0054273 -0.0027415 0.0037494 -0.0079064 0.0044552 -0.0029287 0.0016215 -0.00043842 -0.002797 0.0083682 -0.0071159 -0.0072988 -0.0038613 0.0043744 0.0019225 -0.0024668 0.00023119 0.0037667 -0.0023099 0.0048289 -0.00062674 -0.005785 -0.0020472 -0.00010598 -0.0025336 0.011748 0.0010233 0.008895 -0.0044157 0.0032536 -0.0018876 0.0045334 0.00073277 -0.0067941 -0.0048978 -0.0074946 -0.0049364 -0.0017851 0.00059469 0.0029165 -0.005653 -0.0031211 -0.0014085 -0.00054818 0.00233 0.0023274 0.0040336 
第一次 -0.0018939 0.011079 0.0031986 0.0063745 -0.0067917 0.0070696 -0.009567 -0.0066291 -0.00708 -0.00026704 -0.0025354 0.0013257 -0.0070856 0.00012791 -0.0036822 -0.00039944 -0.0088275 0.0029555 -0.0024602 0.00080532 -0.0086791 -0.0095324 0.00013446 0.0051115 -0.00047147 -0.0042235 -0.0009306 -0.0042194 -0.00041616 -0.0024004 -0.00046129 -0.0026497 -0.0028241 -0.00026472 -0.0040355 -0.0058422 0.0078209 -0.0071522 -0.0031961 0.0023514 0.0069619 -0.0036112 -0.00097723 0.00067375 0.011147 -9.1903e-05 0.002737 0.00070803 -0.0058247 -0.0062541 0.0028177 -0.0061707 -0.0038586 0.0064107 -0.0042139 0.0050379 -0.0060783 0.011626 -0.0055462 0.002031 0.0032334 -0.0038569 0.0051567 -0.0026405 -0.011045 -0.0070311 0.0042559 0.0096009 -0.0096588 0.0028454 0.0045077 -0.0036488 0.0075454 -0.002133 -0.0030202 -0.0037372 0.0065883 0.00081576 0.012036 0.0025375 0.011078 -0.0087653 0.0018326 0.0017944 0.0038505 0.004177 -0.011405 -0.004581 -0.0069682 -0.0081489 -0.0063644 0.0050796 0.0073492 -0.0086536 -0.002434 -0.0059936 -0.00085264 0.0002169 -0.0049905 0.0091148 
类型 -0.00036213 0.0019921 0.0038224 -0.0038367 -0.0085772 0.0047182 -0.002675 -0.00082539 0.00046487 0.0047506 0.0035124 -0.0032881 0.0011485 0.0035907 -0.0071873 0.00069357 0.0014644 0.0019228 0.0045655 -0.0048178 0.0010978 -0.00057449 -0.0037591 0.003267 -0.0025649 0.0025669 0.00016414 0.00043333 -0.0035986 -0.0011448 0.0030894 -0.00031307 -0.00054483 0.0063042 -0.0030914 -0.0045285 0.0016306 0.0018978 -0.0033562 -0.0038298 0.0024201 -0.002782 0.0030814 -0.0011166 0.0045529 -0.0031768 0.0034083 -0.00071301 -0.0054982 -0.0024391 0.0014152 -0.0015344 -0.0031581 0.0034079 -0.00015505 0.0023008 -0.0063299 0.00095803 -0.00044543 -0.0040042 -0.00079279 -0.002754 -0.0014748 0.0036299 -0.0037941 -0.0011421 0.0018441 0.0008148 -0.001616 -0.0038814 -0.0025431 1.7377e-05 0.003429 -0.0027936 -0.0077652 -0.0033449 0.0011356 0.0003947 0.0063787 -0.00013108 0.011436 -0.0038187 0.0019627 -0.0010304 0.0049928 0.00088487 -0.0061495 -0.0005716 -0.0060009 -0.007174 -0.0048101 0.0022393 0.0033766 0.00017815 -0.004608 -0.0056873 0.002211 0.00064717 -0.0061667 0.003005 
内心 -0.0028431 -0.00078591 0.0019194 -0.0013002 -0.00019873 -0.00236 -0.0030988 0.0010599 -0.0030059 -0.00098501 0.0011149 0.0010242 -0.0069358 0.0045115 0.0019174 -0.0058951 -0.0020257 -0.0044169 -0.0011485 -0.00041074 -0.0020287 -0.0049367 -0.0014772 0.0054661 -0.0012518 0.001142 -0.0046338 -0.0024432 -0.0017318 0.002742 0.00075907 0.00084385 0.0010526 -0.0034851 0.0012206 -0.0034408 0.0025461 0.0014693 -0.0024185 0.0036738 0.0022305 -0.0033863 0.00032896 -0.00047888 0.0073943 -0.0015775 0.00054678 -0.00049602 0.0017159 -0.0030296 0.0021863 -0.0022288 -0.0003427 0.00021968 0.0013314 0.0028767 -0.0010457 0.003411 -0.00031998 -0.00056628 0.0023534 -0.0013178 0.0026662 0.0020865 0.00089292 -0.0016594 0.00061827 0.0028143 -0.0028477 0.0048481 -0.0037176 -0.00020708 0.00065881 -0.00046647 -0.0067709 1.1126e-06 0.0033628 0.0022035 0.0044512 -0.00073814 0.00024281 -0.0062106 0.0030455 -0.0012994 0.0046214 0.0013305 -0.0034111 0.00064387 -0.0010333 -0.0062078 -0.0048959 0.005769 0.006027 -0.00058328 0.0029472 -0.0042641 -0.00025288 -0.0001419 -0.0025184 0.0036887 
想要 0.0092118 0.0057081 -0.0024249 -0.002559 -0.003794 -0.0010081 -0.0061182 0.0038214 -0.0036454 -0.0037281 -0.00073251 8.4491e-05 -0.00078451 0.0051464 -0.0022241 -0.00013964 0.0032485 -0.00042562 -0.0037496 -0.00063848 -0.002159 -0.0014057 0.00055263 0.0011848 -0.0020202 0.0037932 0.0044337 -0.0038717 0.0023533 0.0038753 0.0011629 -0.0023548 -0.0011685 0.0013796 -0.0021441 -0.0023022 0.0023311 -0.0067053 -0.0020018 0.0035678 0.0031888 -0.0068042 0.0024317 0.0021922 0.0021819 7.7606e-05 0.0051409 0.0044813 -0.0039135 0.00020761 0.0057868 -0.0068307 -0.0071932 0.004456 -0.0024889 0.0075503 -0.0012296 0.0012289 -0.0056169 -0.0003768 0.00054872 -0.0049067 0.0025045 -0.0051304 0.0011264 0.0007643 0.0063025 0.0016333 -0.00064762 0.0031335 0.0019327 -0.0028386 0.0010773 0.0037015 -0.0021043 0.00096107 0.0017948 -0.0023588 0.011811 -0.0011007 0.0044072 -0.010032 0.0027228 -0.0014225 0.0063669 0.0021494 -0.0063241 -0.0030011 -0.001727 -0.0086591 -0.0041424 0.0059624 0.0013532 0.00095483 0.0019421 0.00048903 -0.0048735 0.0028402 -0.0041628 0.00078579 
摩根 0.00039903 -0.0021799 0.00014509 -0.0056051 0.00037224 -0.0044967 -0.00062197 -0.0015731 -0.0055996 -0.0051602 -0.0037463 -0.002211 0.0014505 0.0026807 0.0048297 -0.0038054 -0.0061752 0.0032793 -0.0052449 0.0018474 -0.0050611 -0.0028841 0.0019579 -0.0026223 -0.0030867 -0.0010556 0.0024611 -0.0022791 0.0045483 0.0053065 0.0036747 -0.0013481 0.0011261 0.0026359 0.0028244 -0.0010112 0.001898 -0.0031097 -0.0020943 -0.002008 -0.0034192 0.0033608 -0.0045725 0.00282 0.0025758 0.0011284 0.000854 0.00047717 0.002363 -0.0027045 -0.0014177 -0.0026558 4.8149e-06 0.0014625 0.0019091 -0.0009264 0.00012085 0.0038256 -0.001929 0.0047705 -0.00096059 -0.0039974 -0.0050546 -0.0033245 0.0018861 0.0011532 0.0038348 -0.0045777 0.0022926 0.00027084 0.0055906 -0.0060237 0.0065409 -0.00084577 7.2128e-05 0.0035563 -0.0018783 -0.00092677 -0.0024372 -0.00015723 0.00209 -0.00014884 -0.0029164 0.00045676 0.0035427 -0.0046096 -0.00055599 -0.0043806 -0.0012672 -0.00011684 -0.0017418 0.0014155 0.0038515 0.0039917 0.0022511 -0.0032959 -0.00090896 -0.0014836 -0.0010043 0.0047264 
伯爵 -0.0067725 0.011365 0.00095233 0.0044249 -0.0015133 0.0048654 -0.0074364 0.0023856 -0.0093654 0.0035007 -0.0032935 0.0020433 -0.0055673 0.0050426 -0.00068511 0.0060159 -0.0014248 5.5625e-05 -0.0010501 -0.00067516 -0.0021223 -0.0067983 -0.0010883 -0.0025014 0.00030431 -0.0031321 -0.00033311 -0.0019787 0.00012577 0.00065427 -0.0022176 -0.0030901 -0.0032969 0.0036024 -0.0040712 -0.0038143 0.0048368 -0.0071581 0.00014458 0.0035575 0.0051904 0.0021174 0.0042509 0.0028505 0.010133 -0.0018192 0.0041808 0.0031512 -0.0077718 -0.0062859 0.0017702 -0.0077213 -0.0025946 -0.00041031 -0.0035886 0.0060092 -0.0083751 0.011598 0.0026937 0.0021371 0.0026622 -0.0053971 0.005269 -0.013615 -0.0064952 -0.0056694 0.0057374 0.0058127 -0.0089541 0.00014259 0.0010396 -0.010444 0.0040225 -0.004721 -0.0088326 0.0010935 0.001188 -0.0061503 0.012253 0.0025779 0.0064555 -0.0077275 0.0059935 -0.0033332 0.0023654 0.0049706 -0.010458 -0.00095073 0.0013762 -0.0040773 -0.0051856 0.0016725 0.0022029 -0.0050797 -0.0016583 0.0047992 -0.00014428 -0.0062977 -0.0021418 0.010206 
解释 0.00022367 -0.0058684 0.0016692 0.0017512 0.002417 -0.0034427 -0.0003133 -0.0024304 -0.00049223 -0.00083927 -0.0049514 0.002117 0.00081665 -0.0010942 -0.0035797 -0.0038415 0.0036782 0.00010275 -0.0036837 -0.0033126 0.0040414 -0.00080625 0.0013588 -0.00078235 0.0028484 -0.00064729 0.001863 0.00071299 0.0071528 0.0043991 0.002088 -0.00096534 0.00036871 -0.0015396 0.0004085 0.0021553 0.0022121 0.001963 0.0023047 -0.0028001 0.00076868 -0.00085597 -8.0236e-06 -0.0028152 0.0015831 0.00084153 -0.00058044 0.002546 0.0025031 -0.00053346 -0.00038217 -0.0043697 0.0050868 -0.0049203 0.00075929 -0.0017518 0.0021864 -0.0051534 0.0021896 -0.0023908 0.00026501 -0.0024123 0.0022735 0.0011999 0.0026877 0.0040819 -0.0010413 0.0024414 0.00076037 -0.00080126 0.0014165 -0.0048564 -0.002247 -0.00021957 0.00078768 0.0019065 -0.00067647 -0.004789 -0.0036013 -0.0018505 0.0051485 -0.00047026 0.0041829 0.0010475 -0.0052501 -0.0028675 -0.0032334 -0.00066062 0.0030266 0.0036636 0.003243 0.00066805 0.00094785 0.0044439 0.0052918 -0.0023466 0.0028865 0.00029699 -0.0036036 -0.0052821 
刺激 0.00070366 0.0052483 0.00046041 0.0011355 -0.001946 0.0041076 -0.0075522 0.005206 0.0024233 0.0037394 0.0021721 -0.0021022 -0.0044079 0.0023611 0.00092864 0.0045971 0.00016154 0.00014349 -0.0053221 -0.0049181 -0.0017633 -0.0046525 0.0041874 0.0015667 -0.0012151 0.0010886 -0.00078814 -0.0037188 0.00088537 0.0028819 -0.00032277 -3.1831e-05 0.0023472 0.00064852 -0.001432 -0.00058419 0.0036894 -0.0016436 0.0020302 0.0069396 0.0040783 -0.0049284 0.0033658 0.0076714 0.0081621 -0.0067377 -0.0045537 0.0028072 -0.011564 -0.0019052 0.0046512 -0.0065213 -0.00050131 0.011327 -0.004345 0.0039546 -0.0011575 0.00593 -0.00077203 0.0038697 0.0086128 -0.0045364 0.0072472 -0.0075523 -0.00021753 -0.0046222 0.0034212 0.0019255 -0.0037384 -0.0016238 0.0012621 -0.0047506 -0.001678 -0.00042405 -0.0090353 0.0020722 0.0043324 -0.0012292 0.010184 -0.0022285 0.0047612 -0.0063617 0.0086329 -0.0013663 0.0020537 -0.0013935 -0.010755 0.0019194 -0.0025549 0.0012071 -0.0044937 0.001345 0.0036665 -0.0056366 -0.00086807 -0.0070799 0.0014015 -0.00052912 0.0037058 0.0073282 
imdb 0.0010962 0.01166 0.0029434 0.0044261 -0.0067658 0.012253 -0.010124 0.0037048 -0.0034583 -0.001471 0.006858 0.00059843 -0.002948 0.0019238 -0.0037514 0.0042398 -0.0021383 -0.002278 -0.0035144 0.00057986 -0.0023557 -0.0082877 -0.0045221 0.0078067 -0.0018504 -0.0019552 0.0012192 -0.0067077 0.00014064 0.0030326 -9.1083e-06 0.00081184 0.0017338 0.0045961 -0.0051021 -0.0041867 0.0079267 0.0015891 -0.0041861 0.0079764 0.010477 -0.0013244 0.0010986 0.004666 0.01102 -0.0031736 8.0733e-05 0.0003237 -0.0093527 -0.0057878 0.0014335 -0.010932 -0.0048976 0.0033397 -0.00059273 0.0061107 -0.0084869 0.011155 -0.0039979 0.0029365 0.0051988 -0.0055345 0.0073291 -0.0057367 -0.0058081 -0.0041263 0.0073761 -0.00049756 -0.0069093 0.0056153 0.0062224 -0.0030368 0.003554 -0.0013627 -0.0054701 -0.0044081 0.0023271 0.00079427 0.0080989 0.0003864 0.011129 -0.01382 0.0016976 0.0043097 0.0023116 0.0037852 -0.00933 -0.0047018 -0.0079377 -0.01223 -0.0068611 0.0030822 0.0071132 -0.0052488 -0.0014876 -0.0044989 0.0055647 -0.0015575 -0.0062554 0.0093348 
感人 0.00062251 0.0010804 0.0015596 -0.0028331 0.0023455 0.0026751 -0.0053354 0.0022762 0.001613 -0.0037084 -0.0027265 0.0023688 -0.0022941 0.0039214 0.0021235 -0.0040179 -0.0012243 -0.0024439 0.0015323 -0.00065846 0.0013762 0.00055733 -2.9276e-05 0.0032006 0.0012076 -0.002759 0.0033807 -0.0029367 0.00040349 -0.0042806 -0.0029999 0.0019963 0.0022778 0.0012125 0.00077277 -0.0011408 0.0075766 0.00058624 -0.0052555 -0.001767 0.0035363 -0.0027383 -0.0022841 -0.001642 0.0078762 -0.0033583 -0.00065592 0.001693 -0.0014328 -0.0052001 0.004837 -0.00041059 -0.0046561 0.0031024 0.0031428 -0.001085 0.0033073 0.00018888 -0.0051835 0.0050022 -0.00049152 -0.0018444 0.0070518 -0.010071 -0.0031876 -0.0024256 -0.00078458 0.00079427 -0.00066285 -0.0035591 0.0028715 0.0029631 0.0040891 -0.0049098 -0.0081334 0.0022184 0.00086159 0.0005658 0.0084833 -0.00212 0.0022346 -0.0067266 0.002832 0.0036647 -0.0017301 0.0019389 -0.0064311 0.00031876 -0.0020675 -0.0030862 -0.0018279 0.006125 0.0058232 -0.0038928 -0.0017368 -0.0099791 -0.0024683 0.0048938 -0.0047299 0.0041356 
主题 -0.0046315 0.014323 -0.0019654 0.0038315 -0.0038475 0.0074151 -0.010705 0.00063245 -0.0045826 -0.00027501 -0.0029011 0.0068781 -0.003527 0.00625 -0.0026295 0.0031525 0.0028001 -0.0023143 -0.0024408 0.002926 -0.0033124 -0.0053643 -0.0039236 0.0082033 0.0039954 -0.00039517 0.0054442 -0.00099013 0.0031618 0.0031312 -0.00053222 0.0010645 0.0029011 -0.0014341 -0.0051651 -0.0050016 0.0047753 -0.0042666 -0.00058041 0.0066607 0.0047599 0.0029685 2.8887e-06 -0.0002435 0.0061012 -0.00016168 0.0061306 -0.0021312 -0.0030874 -0.0082177 0.0033945 -0.0061536 -0.0021022 -0.00076438 -0.0039572 0.0069424 -0.0033354 0.012974 0.0048131 0.0023202 0.0037034 -0.0011087 0.010552 -0.0059639 -0.001114 0.00072086 0.0061705 0.005037 -0.0027586 0.0059046 0.0001257 -0.0022559 0.0083451 0.00010204 -0.0046343 -9.0821e-05 0.0040092 -0.00047267 0.0042548 0.00056635 0.0020981 -0.0080583 0.00015576 0.0039255 -0.0010835 -0.00032976 -0.0093077 -0.00046729 -0.0031296 -0.0076663 -0.0030215 0.0036105 0.0062209 -0.0047294 -0.0019263 0.0013025 0.0016262 -0.0045796 -0.00017405 0.0033423 
信仰 -0.0015111 0.0026398 -0.0031747 0.00022049 0.0021311 0.0020886 -0.0059097 0.0010047 -0.00023015 0.0047944 -0.00074363 -0.00016763 0.001203 -0.0054226 0.00023632 -0.0021455 0.0044779 0.0014676 -0.0044245 -0.0029779 -0.0021689 -0.0077425 -0.0039557 0.00042176 0.0020512 -0.0043145 0.0030561 0.0045935 -0.00037248 -0.00054919 -0.0044671 0.0002942 -0.0034684 0.00042382 -0.00093779 -0.004003 0.0089185 0.00093855 0.00034137 0.0030647 0.0041451 -0.0015701 0.0051385 0.0017556 0.0058765 0.0010827 -0.0027462 0.0020406 0.0019749 -0.0018681 0.00041955 -0.0037337 -0.0033653 -0.0007614 -0.0022435 0.00053491 -0.00047169 -0.0028426 0.0019166 0.0043752 0.0028246 0.0014063 0.0014424 -0.0024628 -0.00063752 -0.0015541 0.00067456 -0.00031114 0.0054414 -0.0025807 0.0036036 -0.0038517 -0.0064089 -0.0010375 -0.0030319 0.0015578 0.0022237 -0.0017535 0.0030569 -0.00021803 -0.00094327 -0.007667 0.0065337 0.0018549 -0.0018208 0.0026855 -0.0015717 0.0014277 -0.0030821 0.0037346 -0.0058157 -0.0041814 0.0011688 -0.0027089 -0.0062321 -0.0055603 -0.00054128 -0.0010264 -0.0020829 -0.00028414 
高于 -0.0041331 -0.0029753 -0.0019597 0.000198 -0.0034053 -0.0037739 -0.0026504 -0.00070716 -0.0029589 -0.0049566 0.00085482 0.0041308 -0.0033916 0.0005167 0.0016299 -0.0054158 0.00076673 0.0033517 -0.0012337 0.000655 -0.0041 -0.0016818 -0.0034385 0.0032588 -0.0013008 -0.0027835 0.0011461 -0.0046053 -0.001037 0.0031429 0.00048607 -0.00032431 0.002374 0.002098 0.00048697 -0.0021692 0.0035117 0.0014956 -0.0031832 0.0017534 -0.00079208 0.0024986 0.0051922 -0.0025704 0.002181 -0.0015402 0.00044417 0.0011666 -0.00066788 0.0013433 0.0023312 -0.0015964 -0.0033754 -0.00088309 -0.0010265 -6.5897e-05 -0.0013219 0.0018638 0.0022873 0.0027334 0.0016546 -0.0071474 0.0013118 -0.0018461 -0.0039939 0.0057928 -0.0028036 0.0013078 -0.0049424 0.0011275 0.0015492 0.00066702 0.0008194 0.0048533 0.0039551 -0.0016329 0.00010823 -0.0037845 0.0030414 -0.004326 -0.0012708 0.0011689 0.00073214 0.0048052 0.0050231 -0.0023745 -8.3326e-05 0.002487 0.00051173 -0.0020324 0.0012248 -0.0024053 0.0088198 -0.0040309 -0.0022111 -0.0022821 0.00032012 -0.0013145 -0.0025547 -0.0017211 
确实 0.004597 0.0021144 0.00017527 -0.0027199 -0.0018743 0.0022566 -0.0047562 -0.0031584 -0.0071175 -0.0027689 0.0013484 -0.00065234 0.0024118 -0.00086855 -0.00060644 -0.0032673 -4.5368e-05 -0.0018766 -0.00053506 0.0022076 -0.0053021 -0.0017681 0.0081296 0.00111 0.00067274 -0.0015045 -0.0050013 -0.0016735 0.0023183 0.0013296 0.0012545 -0.00094263 -0.0031343 -0.00051399 -0.0015856 -0.002139 0.0020161 0.0012977 -0.0043182 -0.0058031 0.00046885 0.0023122 -0.0011332 0.0013943 -0.0026998 0.001874 0.0010726 0.0020541 0.00013735 0.0012205 -0.0041945 0.00028601 0.0028629 -0.0015261 -0.002704 0.0013854 0.0037368 0.0046901 0.0053525 0.00061133 0.0040358 0.0034876 0.0040942 0.00035401 0.002407 0.0045986 0.00070641 0.0015336 -0.0037723 -0.001616 -0.0019132 -0.0018373 -0.0058193 -0.0006735 -0.0079512 9.2712e-05 0.0045384 0.0019758 -0.00067664 -0.0033518 -0.00086687 -0.0033653 -0.0001737 -0.002675 -0.0018589 -0.0025506 -0.0006693 0.0047215 -0.0014884 0.0012118 -0.0017908 0.0011877 0.0050229 -0.0017304 -0.0031019 -0.0019476 0.001753 -0.0024957 0.0004281 0.00035301 
一点 0.0053648 -0.0014841 0.0021268 0.0013585 -0.0011045 0.0034261 0.00016245 0.00073106 0.0014296 -0.0046286 0.00081572 0.0033606 2.4641e-05 -0.0018327 0.0059762 0.0016607 -0.0051179 0.0056421 -0.0049117 0.0035418 -0.0035737 -0.0025851 0.002248 0.0029048 -0.00049622 0.0014127 0.0024795 -0.005765 -0.0016176 -0.002707 0.0028507 0.00067512 -0.00068941 0.0048526 0.0010307 0.0032401 0.0028559 -0.0074731 -0.0065874 0.00051851 0.0031513 0.0020342 0.003439 -0.00061584 0.0060262 -0.0042088 0.0061577 0.0014355 -0.0044667 -0.0011459 0.00058835 -0.00015305 -0.0029157 0.0012895 0.00031542 0.0048914 0.0040182 0.0023641 -0.0084134 0.001199 0.0024344 -0.0054961 0.0037232 -0.0019708 -0.001984 0.0015236 0.0051606 0.0018728 -0.0016688 -0.001739 0.0091165 0.0001526 0.0009258 -0.0018586 0.0042452 -0.0021338 0.0039229 0.00057004 0.006961 -0.0026012 0.011716 -0.010521 0.0037041 -0.0035179 0.0040296 0.0049218 -0.001171 -0.0049001 -0.0032138 -0.0034407 0.00013911 0.0029064 0.0029938 0.00042312 -2.9313e-05 0.00085236 -0.0011596 -0.0043297 -0.0020881 0.0055854 
诠释 -0.0038776 0.0035703 -0.0023687 -0.00024888 -0.0033098 0.0043625 -0.0040371 0.0027452 0.0018269 -0.0044782 0.0047764 -0.001086 -0.00089269 0.0040333 -0.0029484 -0.00012597 -0.00029264 -0.0030064 0.0028223 0.0019953 -0.0036942 -0.0018827 -0.0037203 0.00015102 0.00079803 -0.0028978 0.0050811 -0.0055756 0.0027418 -0.00074163 0.0010247 -0.0036553 -0.00068284 -0.00039061 0.0016582 0.0016063 0.0023392 -0.0020477 -0.0015304 0.0060039 0.0067136 -0.0041754 -0.001448 0.00025515 0.0081713 0.00094621 0.00093092 0.0015061 -0.0030729 -0.0047514 0.0012982 -0.0030155 -0.00096508 -0.0001423 0.00097644 0.00063649 0.0023874 0.0031473 -0.0053006 0.0013259 0.0049341 -0.0052402 0.0039497 -0.0030693 -0.0041693 -0.0045229 -0.0020145 -0.0033158 0.00096711 0.00041356 -0.00075274 -0.0057497 7.7988e-05 0.00081589 -0.0031241 0.0033198 0.00069802 -0.0016895 -0.0028147 0.00056135 0.0071833 -0.0087174 0.0029337 -0.001608 0.0017356 0.00066768 -0.0030062 -0.0022443 -0.0028708 0.0019894 0.0011878 0.0035062 0.0012254 -0.0049342 -0.0010852 -0.00037794 -0.0016594 0.00053721 -0.0028621 0.0067169 
片子 0.001795 0.0080682 0.004313 0.00349 -0.001591 -0.0034213 -0.00062352 -0.0018067 0.0035552 0.0044481 -0.0010308 -0.00097403 -0.0052813 0.0023477 -0.0047658 -0.00018782 -0.0011792 0.0018519 -0.0016523 -0.0040012 -0.0023125 -0.0028792 -0.0023961 -0.003764 -0.0027364 0.0044912 -0.00034128 0.0018004 0.0024415 0.0026609 -0.0036943 0.0016955 -0.004248 2.263e-05 0.0018139 0.00090317 0.0018225 6.6821e-05 -0.0034486 0.0017788 -0.0012328 -0.0039795 -1.4856e-05 -0.0021853 0.00085429 -0.0030162 -9.0654e-05 0.00031976 0.002883 -0.0011067 -0.00081988 -0.0018227 0.0046239 0.0052299 -0.0012281 -0.0039295 -0.0038788 -0.0002757 -0.0079219 0.0032022 -0.0003145 0.0011362 -0.0034799 -0.0041305 -0.0047101 -0.0016271 -0.0022736 0.0022305 0.0036434 -0.0047957 0.007888 -0.0040147 0.0010291 0.0037938 0.0055356 0.0021128 0.0024686 -0.0032014 0.0029643 0.0031205 0.0018928 -0.0076028 -0.0031004 0.001228 -0.00096318 0.0058243 -0.0044713 -0.00088263 -0.0023017 -0.0032291 -0.0042682 0.0016511 -0.0026519 0.0067581 0.0047921 0.004812 -0.0011914 -0.0030445 0.0018923 -0.00045624 
Andy -0.0021855 0.0026278 0.0012655 -0.00047147 -0.0037871 0.0018486 -0.00024201 -0.0016963 0.0012956 -0.00090903 -0.0002236 -0.0006505 -0.003658 -0.0034778 -0.004581 0.0014888 0.002094 -0.00028617 -0.0013794 0.00033679 -0.0019829 -0.0013416 -0.00086285 0.0018007 0.00071927 -0.001113 -0.0031341 -0.00019637 0.00048922 0.001488 0.0027114 -0.00077415 0.00067214 -0.0012405 -0.00056201 -0.0034509 0.0021427 0.00075769 0.0019731 -0.0017379 0.00091208 -0.00053774 -0.00079651 0.0019875 0.0054022 -0.0009549 0.00020016 0.0002996 -0.0027498 0.00017974 -0.0022152 -0.0021946 -0.0009961 -9.6322e-06 0.0017347 0.0021187 -0.00028071 0.0015456 0.00079119 0.0018594 -0.0021797 -0.00039225 0.0011719 -0.0033749 0.00058301 -0.0012267 0.0021777 0.00024073 -0.0034804 0.0030169 0.0003747 0.0005971 -0.001717 -0.00077428 0.00045078 0.001665 0.00098004 -0.0017569 6.8611e-05 0.00028815 0.00104 -0.002739 0.0012425 0.0014277 -0.0011386 0.00058572 -0.0026509 0.0030241 -0.00076856 -0.0026088 -0.0039209 0.00040789 0.0016498 -0.00058192 -0.0014352 -3.1146e-05 -0.00053512 0.0013366 0.00094826 0.0017719 
勇敢 0.0063633 0.0015038 0.0024776 -0.0012987 -0.00067964 0.0079034 -0.0057352 -0.0009394 -0.00041552 0.00064499 0.0001558 0.00066484 0.0032479 0.0039363 -0.0055439 0.0040662 0.0011959 -0.0020417 -0.0027644 0.0054773 -0.0009351 -0.0042343 -0.003799 0.00092593 0.00027972 -0.0030962 -0.0014726 0.0017682 -0.0037668 0.00059358 -0.0041967 -0.00030446 -0.00057848 0.0016321 0.0007474 -0.0048098 0.0050469 -0.0071189 -0.00012204 0.0042586 0.0002099 -0.0021729 -0.0061102 0.0022988 0.0017641 0.00084314 -0.002182 0.0048212 -0.007516 -0.0036886 0.0049092 -0.00161 -0.0017777 0.005288 0.0012358 0.0082833 -0.0036206 0.0032116 0.0029957 0.0032815 0.00483 0.00092234 0.0027239 -0.0024353 -0.0039721 -0.0040813 0.0052361 0.0034095 -0.0020619 -0.0054322 -0.0021498 -0.003773 -0.0018644 -0.0002923 0.0019566 0.003142 -0.00019591 0.0016677 0.0032529 -0.0015958 0.0024713 -0.0012288 0.0056004 -0.0023023 0.0021282 0.0046167 -0.0017893 0.0035014 0.00062775 -0.0034253 0.0041549 -2.1549e-05 0.0026675 -0.0048202 0.0037935 -0.0044899 0.0023177 0.00080734 -0.0047497 -0.00069568 
穿越 0.00023048 0.01103 0.0014305 -0.0027956 0.0011083 0.0055574 -0.0047011 -0.0018555 -0.003057 -0.0020976 0.003046 0.0038375 -0.0096946 0.00073291 -0.00021774 -0.0015605 -0.0034988 0.0018333 -0.0014688 -0.0020566 -0.0036784 -0.0020598 -0.004545 0.0074749 -0.0014556 -0.0002554 0.0040402 -0.003047 -0.00033035 0.0025148 0.0056861 0.00096069 0.0012341 0.0011557 -0.0010812 -0.0044338 0.0038258 -0.0023527 0.0024936 -0.00046313 0.0036723 -0.00014774 -0.0019004 0.0017802 0.0060073 0.0026234 1.9987e-05 0.0060324 -0.0098378 -0.0060075 -0.0023846 -0.0078318 -0.0037695 0.0058379 -0.0019485 0.0033277 -0.00083982 0.012025 -0.00059077 -6.8302e-05 0.0030953 -0.00019929 0.0059727 -0.0070394 0.0017927 -0.0021821 -0.0013518 0.0039768 -0.0041251 0.0057188 0.0041145 -0.0043813 0.0033374 0.00036374 -0.0085363 -0.0024807 0.0035053 0.0022537 0.0019553 -0.0033694 0.0039881 -0.0066945 0.0024371 -0.0052073 -0.0021642 0.0047539 -0.0057798 -0.0016083 -0.0051708 -0.007114 -0.0036143 0.0054808 0.0025663 -0.0020636 -0.0040449 0.0010568 0.0027234 -0.0018772 -0.006071 0.0035252 
呼唤 0.0034297 0.003506 -0.005136 -0.0012344 -0.0030091 0.0026938 0.00021796 0.00053002 -0.00060941 0.0056908 -0.00044673 0.00062117 -0.0043237 -0.0055307 0.0010627 -0.0033184 0.00011012 0.0024764 -0.0046592 -0.0048817 0.0040463 -0.004853 -0.00015264 -0.00046191 -0.0022548 0.005441 0.0041032 -0.0024284 -0.00054497 0.0014364 0.00045874 -0.0039986 0.0008924 -0.0016282 -0.0012336 0.0024118 8.0076e-05 0.00042419 -0.00036499 0.0037778 0.0054715 0.0016149 -7.3231e-05 0.0029196 0.0091259 -0.00018084 -0.0026481 0.0034578 -0.0030331 -0.00070845 0.0016244 0.0026667 -0.0073082 0.0032474 -0.0042941 0.00099194 -0.006847 0.00082402 0.001887 0.0051092 0.0016665 -0.0013339 0.0048897 -0.0021616 0.0061691 -0.0042756 0.0011221 -0.0018591 -0.0072018 -0.003239 -0.0054926 -0.0011905 0.0026265 0.0026973 -0.0020305 0.0013106 0.0020577 -0.00025288 -0.0026815 -0.0013003 0.0026714 -0.0023779 0.0037519 0.0010207 -0.0031495 0.0014677 -0.003489 -0.00050157 -0.005291 0.00021478 -0.0047435 0.0050806 0.0044131 0.00062974 -0.0036252 0.0028225 0.0026724 0.0039702 0.00076271 0.008546 
触动 0.0034753 0.00043583 0.0030785 -0.0034469 0.0012879 0.0018898 0.0027229 0.0020897 -0.0012095 -0.0074277 -0.0017054 0.0030007 -0.0016385 -0.0043231 0.0015264 0.0029915 -0.0037173 0.0035036 -0.0014677 -0.0028381 -0.001221 -0.0001409 0.0065379 0.0032748 -0.0012486 -0.00080358 0.00030281 -0.00055032 -0.00048734 0.0015662 0.0040939 -0.0018411 0.0038254 -0.00108 -2.0987e-05 -0.0022601 -0.0017703 0.00057924 0.0005172 -0.0008745 0.006019 0.0011063 0.00058994 0.0026382 4.7914e-05 0.0018284 9.9248e-05 -0.0044877 -0.0014519 0.0069647 -0.00099173 -0.0016802 0.00093835 0.001913 0.00026824 2.4164e-05 -0.0083128 -0.0020103 -0.00063499 0.0019278 0.0021712 0.00019149 0.0033371 -0.0057932 -7.4765e-05 0.0012405 0.0055007 -0.0013195 0.0011958 -0.0043561 -0.0012623 0.00088322 0.0051888 -0.0017697 0.0038651 -0.0011628 0.0020107 0.0041576 -0.00081066 0.0042553 0.007639 -0.0011537 0.001103 -0.00041219 -0.0016965 -0.00090457 -0.0059154 -0.0002364 -0.00064607 0.0015346 0.00012538 -0.0016629 -0.0067881 -0.0024187 0.00093969 -0.0014525 -0.0012293 0.00041186 0.0037761 -0.0042704 
肖申克 -0.0015052 0.0099985 -0.00034421 0.000808 -0.005437 0.0055789 -0.0085788 0.0012187 -0.0031592 0.0054146 0.0045867 0.0025508 -0.0023769 0.0012889 0.00056787 0.0046331 -0.0015527 -0.0032078 -0.0023545 0.0008015 -0.0025188 -0.0029069 -0.000618 0.005736 -0.00078018 -0.0026343 0.0020801 -0.0014085 0.0012604 0.0027105 -0.001723 -0.0024787 0.0035126 0.0018066 -0.0079403 -0.0072395 0.0054174 -0.0024384 -0.0041521 0.0044296 0.0063484 -0.00043173 0.0045229 0.0014416 0.0081527 0.00035608 0.0010568 0.00031147 -0.0059092 -0.0010198 0.002143 -0.0043036 -0.0083796 0.0041253 -0.0016659 0.0065648 -0.0028412 0.0082002 -0.0023126 0.0020313 0.0014636 -0.0027662 0.0065372 -0.0065275 -0.0045435 -0.0047772 0.0097018 0.0056342 -0.0077359 0.0033525 0.0050519 0.00028268 0.0010694 -0.0012449 -0.0015792 -0.00035897 -9.0305e-05 0.00030352 0.010892 0.0017949 0.012908 -0.01137 0.0003199 -0.00027801 0.005549 0.0013567 -0.010284 0.0015623 -0.0079457 -0.0050779 -0.0081459 0.0050494 0.0073335 -0.0055915 -0.0024695 -0.0044798 0.0036108 0.0017024 -0.0054621 0.0035264 
bbm 0.0021463 0.0090647 0.0023497 -0.00045976 -0.0065667 0.0064006 -0.0091394 0.0017452 -0.0042823 -0.0021335 0.0028311 0.0030931 -0.0060711 0.0018654 -0.00088689 0.0040943 -0.0015298 -0.002343 -0.0041795 0.00096687 -0.0019418 -0.0048827 -0.0051171 0.00038343 -0.002691 -7.9418e-05 0.0037935 -0.0039616 -0.0017469 0.00057935 -0.0022946 -0.003248 -0.0015974 0.0015161 -0.0022687 -0.0047292 0.00301 0.00067379 -0.0014066 0.0052428 0.0037035 0.00025654 0.0030966 0.0011291 0.0049181 0.00095852 0.005131 -0.0018952 -0.0055377 -0.0043902 0.0014978 -0.0043702 -0.00056625 0.0067675 -0.0012919 0.0026309 -0.0033978 0.0086304 0.0010186 0.005092 0.0014002 -0.0044464 0.0044318 -0.0086072 -0.0013465 -0.0063066 0.0071128 0.0010085 -0.0035525 0.001713 0.0050879 -0.0015762 0.0045289 -0.0016119 -0.0045029 0.0036737 0.001626 -0.0033266 0.0072599 0.0029078 0.00271 -0.0051742 0.0031559 0.0024723 -0.00092976 0.0016454 -0.0046299 -0.0044099 -0.0052189 -0.0050355 -0.0057995 0.0052985 0.0069712 -0.00080371 -0.0026789 -0.0057087 0.0038097 -0.0022781 -0.0042957 0.0060345 
配乐 -0.0029677 0.0054536 -0.0013292 -0.00020103 0.00091525 0.0084546 -0.0058077 0.006653 -0.0025638 -0.0062805 -0.0051386 -0.0014885 -0.00055278 0.0044138 0.0017018 0.0064425 0.0048077 0.0014158 -0.0072823 -0.0040517 -0.0060167 0.00016427 -0.0012972 -0.0034939 0.00418 4.486e-05 -0.00085685 -0.0055901 -0.0017411 -0.0014492 -0.00049892 -0.0014166 0.0049524 0.0036874 0.00040532 0.0027399 -0.0034209 -0.0062261 0.002846 0.0070882 0.004099 0.0013412 0.0055614 0.0061557 0.0057864 0.00023168 0.0034226 -0.0013657 0.00022685 -0.0046864 -0.0038782 -0.0016022 -0.0021529 0.0061821 -0.0053983 0.0029771 -0.00098766 0.014004 -0.0051327 0.005233 0.0060116 -0.0072429 0.0062099 -0.0066365 -0.0018742 -0.0035293 0.0033561 0.001553 -0.0066772 -0.00050591 0.0042711 -0.0046255 0.0032528 -0.0016753 -0.0055625 -0.0030854 0.0055255 0.0037749 0.0044008 0.0035563 0.0080411 -0.0066709 0.0013551 0.0038241 -0.0017319 0.0026799 -0.0075397 -0.0059912 -0.0060291 -0.0036414 -0.0064485 0.0043276 0.0055684 -0.00042162 -0.0082251 -0.00039553 0.004529 -0.0069251 0.0018202 0.00021814 
遍看 0.00095926 0.0083908 0.0053604 0.0032825 -0.010276 0.010482 -0.0088529 -0.00046987 -0.0075754 -0.0014102 0.0023379 0.0033356 -0.0031492 0.0035577 -0.0041644 0.0057652 -0.0012939 -0.0057794 -0.0024088 0.0034603 -0.0058036 -0.0020523 -0.0072668 -0.00023407 -0.0064572 -0.0061136 0.00030347 -0.0083643 0.0008237 0.00070948 -0.0019285 -0.0014147 -0.0017384 0.0018685 -0.0048166 -0.0095744 0.0024034 -0.0074427 0.0040619 0.0061956 0.0046153 -0.0015721 0.0074385 -0.0003594 0.017636 -0.0042626 0.0012108 -0.0013169 -0.0088585 -0.0085197 0.0017289 -0.0087137 -0.0019236 0.009716 -0.0051059 0.0083526 -0.0088573 0.0072209 0.0013058 0.0031939 0.0051697 -0.0025004 0.013332 -0.011102 -0.0071646 -0.0057959 0.008052 0.001188 -0.0060597 0.0047126 0.010894 -0.0054448 0.0042596 -0.00066283 -0.0076938 0.0019454 0.0059402 -0.0026334 0.0084595 0.00046903 0.011106 -0.012574 0.010951 0.00099902 0.0063843 0.0045178 -0.005285 -0.0011373 -0.010001 -0.0078041 -0.0098213 0.0029969 0.009568 -0.0065624 -0.0023384 -0.0015088 -0.0015462 -0.0024103 -0.00032449 0.0087913 
Trailer 0.00094199 0.0067951 -0.001266 0.0037965 -0.0043536 0.0072307 -0.0068159 -0.0006143 -0.0049254 0.00085013 0.00081547 0.0022019 -0.005321 0.0003445 -0.0020678 0.0024078 -0.00086825 -0.0028943 -0.0035184 0.0015461 -0.0028973 -0.0060994 -0.00095238 0.00087372 -0.0045775 -0.0014129 0.00078017 -0.005371 0.0022589 0.0011793 0.0006437 -0.0010431 8.1962e-06 0.0010172 -0.0038901 -0.0035039 0.0041858 -0.0036615 -0.0020274 0.0040422 0.0044356 -0.0022326 0.0013397 0.0039079 0.00912 -0.0014005 -0.00033313 0.00030545 -0.004854 -0.0057695 0.0019912 -0.0061439 -0.0029129 0.0045459 -0.0028113 0.0033403 -0.0042722 0.0081203 -0.0022004 0.0024748 0.0026531 -0.0042357 0.0071408 -0.0063202 -0.0018682 -0.0049262 0.0032719 0.0025553 -0.0075786 0.0056132 0.002552 -0.0019417 0.0037078 -0.00045869 -0.0044437 -0.0028907 0.0020172 -0.00019976 0.0092232 0.00066535 0.00697 -0.0075957 0.0028145 0.00149 0.0048551 0.002166 -0.0088655 -0.0014797 -0.0069449 -0.0073719 -0.008299 0.0029779 0.0033781 -0.0054037 -0.0034603 -0.0030475 0.0024566 -0.0031428 -0.0027526 0.0070653 
害得 -0.0024792 0.0078674 -0.003657 0.0026806 -0.004217 0.009833 -0.0090899 0.0021696 -0.00010915 0.0045313 0.00052032 0.0026878 -0.003505 -0.0021598 -0.0050526 0.0060973 -0.0031737 0.0022391 -0.0048684 0.004887 -0.0034645 -0.0029066 -0.0047623 0.0044876 -0.0029084 -0.0044451 -0.00098737 -0.0072982 0.0043755 0.00062965 0.00093156 -0.0066946 0.00022042 0.0022051 -0.0041724 -0.0028135 0.00025491 -0.0046302 -0.0031607 0.0066792 0.0091469 -0.00092299 0.0018982 0.0052695 0.013352 -0.00047121 0.0032913 0.0040533 -0.0056568 -0.0069561 0.0074309 -0.0067996 0.002874 0.006657 -0.0053924 0.0050753 -0.0073345 0.010901 0.00062274 0.00087964 0.0038923 0.00041405 0.011546 -0.010402 -0.0041223 -0.0047955 0.0043908 0.00074701 -0.0052447 0.0039776 0.0036142 -0.0062123 1.2002e-05 0.002626 -0.0052351 -0.004461 0.00033041 -0.0044293 0.012769 -0.0015013 0.010818 -0.0099427 0.0086639 0.00088463 0.0068398 0.0057607 -0.015899 0.0014567 -0.005458 -0.0042783 -0.0039525 0.00034908 0.005528 -0.0088689 -0.0013464 -0.0020933 -0.0051536 -0.0039928 0.00041274 0.0032191 
安迪 0.00021914 0.0072271 -0.00063784 0.0045704 -0.0041965 0.012589 -0.0053695 -0.0030697 -0.0022833 -0.00087059 0.0068151 0.00010731 -0.0026256 0.00034533 -0.0014511 -0.0042475 -0.0041519 -0.0029818 0.00082991 0.0068329 -0.0021089 -7.6478e-05 -0.0053938 0.0024194 -0.0046606 0.00053554 0.0049337 -0.0076308 0.0015723 0.0030287 0.00065147 0.0018772 0.0021377 0.0023777 -0.0095394 -0.0013086 0.0053979 -0.0007194 -0.0073407 0.0088993 0.0064488 -0.0029235 4.038e-05 0.0062696 0.0056226 -0.0027303 0.00043874 0.0032348 -0.010182 -0.0068019 0.0011501 -0.0069511 -0.0025429 0.00067587 0.0037535 0.0053474 0.0028263 0.0094271 -0.0080509 -0.0036268 -0.0021283 -0.0043371 0.0059735 -0.0081468 -0.0088209 -0.0062612 0.00063079 0.0064734 -0.0047463 0.0042085 -0.00068635 -0.0054731 0.0061335 -0.0054968 -0.0022991 -0.0058404 0.0040783 -0.0047242 0.0059043 0.0049407 0.0096521 -0.0097964 0.0037457 0.0033069 0.0043732 0.00033173 -0.0054834 1.4318e-05 -0.0075057 -0.0054924 -0.0074399 0.00082742 0.0069777 -0.0038154 -0.0067158 -0.0031154 0.0028926 -9.1305e-05 7.6941e-06 0.0044195 
变奏 -0.00066387 0.0073412 -0.00062678 -0.0021341 -0.0041592 0.011837 -0.0063377 0.0016676 -0.0066417 -0.0053901 0.0026123 0.0018072 -0.0092175 0.0019914 -0.0055539 0.0019018 0.0049713 -0.0015199 -0.0022376 0.0064759 0.0010233 0.00090275 -0.008569 0.0045617 -0.0057238 4.2346e-05 0.0060508 -0.0013323 0.0016922 0.0017275 0.0044236 -0.0050211 -0.00088837 0.0010883 -0.0077849 -0.0015725 0.0085067 -0.008684 0.0057343 0.0021635 0.0090743 -0.001311 -0.0011368 0.001136 0.0076811 -0.0056973 0.00014486 0.0022967 -0.0043783 -9.4062e-05 -0.0024181 -0.0075931 -0.0057366 0.0046291 -0.00047077 0.0024498 -0.0057209 0.0090996 0.00098187 0.0011545 0.003684 -2.5161e-05 0.0079938 -0.0057541 -0.0094858 0.0001896 0.0015848 0.0025444 -0.0040565 0.0009717 0.0038153 -0.0075515 0.0024299 -0.0022001 -0.011303 0.0047903 0.0014664 0.0036517 0.0075982 -0.00038901 0.0088486 -0.010397 0.0043479 -0.0050187 0.0034026 0.0043992 -0.0042083 -0.0048321 -0.0049695 -0.002805 -0.0082075 0.0053951 0.00634 -0.0082803 -0.008677 -0.002887 -0.0012366 0.0028931 -0.0032252 0.0086251 
美好 -0.00066062 0.0027137 -0.003806 -0.0020878 -0.0019124 0.00092808 -0.0016981 -0.0002014 0.00032702 0.0006749 -0.0009186 -0.0060834 -0.0026534 -0.0026875 0.0025845 0.00057173 -0.0023596 0.0054872 -0.00025492 0.0002457 0.00098886 0.0018116 -0.003001 0.0064947 -0.00023591 -0.0013057 0.0052172 -0.00011565 -0.0026301 -0.0014982 0.0001714 0.002815 -0.00056058 -0.00091244 0.0010979 -0.0010783 0.0046171 0.0059196 2.0809e-05 -0.00074229 -0.00038138 -0.0030531 0.002487 -0.0026815 0.0029718 -0.0030379 -0.0023276 0.0045863 -0.0021524 -0.00041609 -0.00052367 0.00019436 -0.0092536 -0.0029244 0.0016631 0.0025864 0.00055818 0.0096382 6.6329e-05 -0.0014736 0.0049156 0.0025427 0.0040538 -0.0039235 0.0036315 0.0021167 0.0061363 0.0071874 -0.0031029 0.00039053 0.0018467 -0.0024581 0.00017941 -0.0017575 -0.0038128 0.0037536 4.0818e-05 0.0019226 0.0062237 -0.0022655 0.0043134 -0.0058171 0.0006557 0.00080556 -0.0027779 0.0026114 -0.0034636 0.0019557 -0.0019244 -0.0024541 -0.0051916 0.0034904 0.0028967 -0.0045929 -0.0025018 -0.0030284 0.0007408 0.0056032 -0.0028348 0.0018772 
IMDB 0.00064412 0.0088047 0.00036267 0.00079595 -0.0058655 0.0078796 -0.0077835 -0.0006046 -0.0022732 0.0024779 0.0010301 0.00079732 -0.0040816 0.0058927 -0.0065954 0.0051097 -0.00075379 -0.0009462 0.0021491 -0.0014964 -0.0040253 -0.0025922 -0.00085914 0.0041995 -0.003594 0.0021684 -0.00086461 -0.0025953 0.001814 0.0027141 0.00133 -0.00064113 0.0035196 0.0020237 -0.0015045 -0.003165 0.0073624 -0.00058 -0.0035593 0.0077117 0.0068122 -0.00089222 0.0018178 0.0055737 0.0067415 -0.0012575 0.0011169 0.0012344 -0.0059409 -0.0061119 0.00076055 -0.005965 -0.0032082 0.0032201 -0.0042223 0.0064849 -0.0014958 0.0075256 -0.0028949 0.0028538 0.0019267 -0.0013236 0.0082297 -0.0072797 -0.0047499 -0.0071609 0.0039771 0.0050087 -0.0062424 0.00099929 0.0025838 -0.0026023 0.0024978 -0.0023604 -0.0082956 -0.0016986 0.0016519 -0.00095451 0.0098648 0.005161 0.0094494 -0.0077961 0.0038698 -3.3367e-05 0.0012848 0.0065107 -0.010118 -0.0015038 -0.006111 -0.0062575 -0.0027582 0.001787 0.0045028 -0.0040313 -0.0010044 -0.0012176 0.0034162 0.0012073 -0.0023314 0.007337 
排名 0.0032049 0.0097722 0.0041909 0.0013207 -0.0049688 0.0037182 -0.0052147 0.0016881 0.0040479 0.0010873 0.00088938 -0.0023669 -0.010939 -0.00090543 -0.0079695 0.0030195 -0.0051625 0.0021432 -0.0039442 0.0025151 0.0012863 -0.010083 0.0023373 0.0077872 -0.0014004 -0.0041782 0.00080738 -0.0032733 0.0020032 -0.0050204 -0.0017038 0.0015402 -0.0055048 -0.00039188 -0.0034209 -0.0065314 0.0041206 0.00031045 -0.0051198 0.0052144 0.0029928 -0.0080867 3.1958e-05 0.0023261 0.0096424 0.0066345 0.0025923 -0.00068676 -0.0053495 -0.010757 0.0040652 -0.0030582 0.0045 0.0041472 -0.00173 0.0017221 -0.0053081 0.0091725 -0.0005207 0.0033657 0.0022629 -0.0018622 0.005172 -0.0013048 -0.0029602 -0.0072877 0.0012839 0.0085416 -0.010872 0.0041125 0.0015925 -0.0027673 0.0012258 0.0032635 -0.0050815 0.00031068 0.0072391 -0.00088743 0.0044173 0.0011347 0.0078305 -0.0056445 0.010967 0.0044152 0.00099525 0.0042074 -0.010649 0.0019269 -0.0073783 -0.0058442 -0.0015939 0.003163 0.0048414 -0.007817 -0.0047847 -0.0044776 0.0033494 0.00024526 0.00036914 0.0095246 
五百 0.0042734 -0.001721 -0.00065476 -0.0010768 -0.0043514 -0.00090805 0.0031369 -0.00026352 -0.0040262 -0.0043607 0.0011434 0.0025497 -0.0071155 -0.00063612 -0.0080394 -0.00079327 0.00046522 0.0022091 -0.0034585 0.0035188 0.0004456 -0.00011207 0.0037188 -0.00022698 -0.002127 -0.00038296 0.0034215 0.0036664 0.00573 0.0049391 0.0027619 -0.00029227 0.0028999 -0.0022106 -0.00055086 0.0021695 -0.0011392 0.0014378 0.00080207 0.0016013 0.0033019 0.00051782 -0.00084901 0.0003762 0.00032409 0.004757 0.0012479 0.00012482 -0.0013337 -0.0016292 -0.0016924 0.0028195 -0.0044076 -2.8679e-05 -0.003912 0.0036998 -0.0033764 0.0022505 0.00087416 -0.0030353 -0.0011265 0.0031288 0.0012038 -0.00083452 -0.0005347 0.0017375 0.00067286 -0.00029984 -0.0076237 -0.0018259 -0.0025568 -0.00025214 0.003003 -0.00076631 0.0030215 0.0020224 0.0011137 -0.0029123 0.0013953 -0.0043953 -0.00088989 0.0019336 -0.004324 -0.0017795 0.0040433 -0.00019372 -0.0023766 -0.00173 0.0026526 -0.003577 -0.0064398 -0.0045537 -0.00096307 -0.0051275 0.0026107 -0.0026466 0.00043169 -0.0043876 -0.0020826 0.00036052 
假释 0.0019145 0.0042969 -0.0027641 0.0050547 -0.0051445 0.0083205 -0.0066849 -0.0024174 -0.0052779 0.0042579 -0.0011201 -0.0013136 -0.0081382 -0.0019529 -0.0044597 -0.00084954 0.0025269 0.0031269 -0.0074709 -0.00503 -0.0038906 -0.0036547 0.0014717 0.0035631 0.0019949 -0.0016435 -0.0023319 -0.0027486 0.001167 -0.0014004 -0.0025446 0.0014391 -0.0015323 -0.0039334 0.00026435 0.0004247 0.0046518 -7.7381e-05 -0.0011356 0.0042022 0.0055387 -0.0019244 0.0054469 0.0053034 0.011891 0.0011368 -0.0038265 0.0012439 -0.0065423 -0.0039895 0.001937 -0.0010448 -0.008422 0.00713 -0.0062969 0.0001746 -0.0028273 0.010254 -0.006387 0.0026841 -0.00093482 -0.0039812 0.002292 -0.0091159 -0.0015533 -0.0017382 0.0035116 0.0045827 -0.0035883 0.0020659 0.0023283 -0.0049102 0.0024015 -0.0011563 -0.005482 0.00095558 0.0028763 0.0031674 0.0081663 0.0053587 0.0062646 -0.0052242 0.00076551 -0.0016766 0.0005993 0.0040471 -0.010843 0.0011157 -0.0007441 -0.0046495 -0.0017286 0.0028424 0.0080393 -0.0056977 -0.0026727 0.0026718 -0.00017543 0.0020754 -0.0026139 0.0077686 
上班族 -0.0011028 0.010866 0.00098644 0.0038109 -0.0075881 0.0069491 -0.0071869 -0.0011896 -0.0068954 0.0034126 0.0022963 0.0065915 -0.001608 0.0032491 -0.0034769 0.0042804 0.0033445 7.4793e-05 -0.00084492 0.0050946 0.0015345 -0.0035603 0.0035642 -0.0012437 -0.0028617 0.002094 0.00038284 -0.004818 -0.00020549 -0.0003864 0.0020056 -0.0043937 0.0010656 0.0034252 -0.003297 -0.0077355 0.0065937 -0.0084151 0.0012234 0.0020652 0.0091086 -0.0031209 0.0063738 0.0058392 0.0089502 0.0014242 0.0066305 0.0055666 -0.0042503 -0.00060228 0.0027821 -0.0070381 -0.0039684 0.00093974 -0.00018596 0.0013166 -0.0047474 0.0066202 -0.0031083 0.0059565 0.00351 -0.0014918 0.0097445 -0.0084867 -0.0013601 -0.0044925 0.0065568 0.0029703 -0.0053504 0.0027074 0.0077242 -0.0069786 0.0026513 -0.0025494 -0.0037928 0.0025502 0.0038164 -0.00083789 0.0045567 -0.0010972 0.0055605 -0.004118 0.0060444 -0.0024182 0.0025441 0.00529 -0.010647 -0.0026416 -0.0042749 -0.0041369 -0.0044653 0.0056793 0.0019949 -0.0078551 -0.0080688 -0.0055731 0.00044998 0.0028542 -0.0041431 0.0070737 
給了 0.0038598 0.010636 0.00030882 0.0067569 -0.0034505 0.0065912 -0.013692 8.0729e-05 -1.5155e-05 -0.0023313 0.0015024 0.0013549 -0.0073833 3.6421e-05 -0.0033415 0.0068716 0.0036908 0.0043453 -0.0002712 -0.0025128 0.00084019 -0.0076402 -0.0012842 0.0015963 0.00044725 -0.003676 0.0048909 -0.0077774 -0.0045046 -0.0011581 0.0010606 0.0033816 0.0030977 0.004 -0.0039373 -0.00092675 0.0067281 -0.0029475 0.0023296 0.0041945 0.0063688 -0.002428 -0.0037672 0.00086504 0.0088544 3.4393e-05 0.0030207 0.0063493 -0.0067489 -0.0097108 0.0034536 -0.005939 0.0005821 0.0042572 -0.00068868 0.0020419 -0.0084892 0.009551 -0.0047993 0.00085532 0.0077567 -0.00050005 0.0027101 -0.0052635 -0.0086505 -0.0050498 0.011016 0.0086013 -0.00082158 0.0019201 0.0041511 -0.0053143 0.0052326 -0.0021514 -0.00041201 -0.00010701 0.0072328 0.0001332 0.0090715 -0.0010898 0.010227 -0.016387 0.011852 0.0030854 -0.0017749 0.0020403 -0.0099057 0.00071352 -0.0061839 -0.007844 -0.00011124 -0.00061954 0.0034988 -0.0035797 0.0016403 -0.0043782 -0.0021167 0.0019556 -0.00087136 0.0061848 
自作聪明 -0.00058489 0.0014181 0.00080146 0.00069683 -0.0013945 -0.00065047 -0.00044047 -0.0011751 0.00044446 -0.0011855 -0.0018494 0.0010263 0.0014543 0.00056327 -0.0017456 -2.4295e-05 0.00072867 0.0019261 0.00092475 -0.00068518 0.0032915 0.0005974 0.004389 3.7981e-05 0.001534 0.0024832 0.0017919 -0.00067736 0.0011319 0.0014153 -0.0019766 0.0026377 0.0016213 0.00014389 -0.00090181 -0.0010523 -0.0025048 -0.00025211 -0.0015511 0.00089884 -0.0014484 -0.0036985 0.0023741 -0.0039483 0.0035835 0.0021434 -0.00041088 0.0026917 1.5451e-05 0.00074927 0.0029465 -0.00026719 0.0016425 0.00037206 -0.0010864 -0.0012051 0.002786 -0.00025975 -0.00036413 -0.002093 -0.00052859 0.00091227 -0.0032704 0.0011976 0.00034653 0.0019993 0.00077432 -0.0018377 -0.0012041 0.0021557 -0.00089863 -0.0024304 0.0022712 -0.00012647 -0.0005194 -0.00010557 -0.00085715 -0.00049215 0.0013409 0.0037645 0.00076544 0.001484 -0.00025024 0.00033096 0.0023426 -0.00087029 -0.0030838 0.00075522 -1.4561e-05 -0.00020794 -0.00076267 0.002058 0.0017764 -0.00042987 -0.0041054 9.5729e-05 0.00026177 -0.0012945 -0.00043404 -0.0006565 
不觉 0.0014712 0.0026904 -0.0013828 0.0036126 1.9608e-05 0.0050233 -0.0063859 0.0022161 -0.0051041 -0.0036038 -0.0016776 0.0021342 0.0018848 -0.0039623 0.0051233 -0.0022467 0.0046985 0.0010063 -0.0019044 0.0033855 0.00084597 -0.0083825 -0.0010512 0.0011413 -0.0041222 -0.0024317 0.00019151 -0.0043479 -0.0032255 -0.00073391 0.0034381 0.0016506 0.0040158 0.004033 -0.0042357 -0.0033389 0.0030218 -0.0078154 -0.0016811 0.01029 -0.00086331 -0.0013101 0.00043852 -0.0025477 0.0024169 0.0035817 -0.0069142 -0.00042415 0.0030316 -0.001208 0.0011904 -0.0030958 -0.0011497 0.0016377 0.001814 -0.00020718 -0.0013058 0.0036625 -0.0012281 0.0020668 0.00034622 -0.0049787 0.0040006 -0.0032774 -0.00669 -0.00077058 0.0056268 0.0074705 0.0006185 0.0018173 0.00038733 -0.0056457 0.00039678 0.00078827 -0.0035774 -0.00031493 -0.0031549 -0.0028371 0.0034791 -0.00070332 0.0026678 -0.0042423 0.0058188 -0.0021342 0.0022738 0.0040788 -0.0036143 6.2578e-05 -0.0083123 -0.0018328 -0.0033241 -3.6306e-05 -9.7197e-05 -0.0073279 0.0028545 -0.0025154 -0.00024748 0.002626 -0.0030257 -0.00042732 
評分 0.0053344 0.010931 0.0078175 0.0065602 -0.010583 0.0097409 -0.0081746 0.0015761 -0.001774 0.0036111 -0.0002302 -0.0031192 0.0001031 -0.00086531 -0.003791 0.0018657 -0.0025776 -0.006247 0.00036315 -0.0060905 -0.0066403 -0.0093724 -0.0041008 0.001546 0.0017247 -0.00066582 -0.00043632 -0.0063518 2.0789e-05 0.00037502 -0.0030925 -0.00023773 0.0032429 0.0019517 -0.0049518 -0.00079042 0.0078432 -0.0014601 -0.0073739 0.0060679 0.0039759 -0.0011657 0.0039021 0.0020454 0.0119 -0.0011464 0.0057134 -0.00026996 -0.0038402 -0.0023476 0.0053055 -0.0079821 -0.0076175 0.00037692 -0.002179 0.0052696 -0.0094968 0.012982 -0.0054756 0.0004281 0.0093021 -4.0123e-05 0.0085929 -0.011886 -0.0061432 -0.010777 0.0065296 0.0004625 0.00026825 0.0028344 -0.00098787 -0.0043856 0.0079365 0.00011362 -0.004105 0.0013108 0.0057472 -0.00031284 0.0086787 -0.0019703 0.014655 -0.017305 0.0084667 0.0022764 0.0052081 0.0075308 -0.014045 -0.0070687 -0.0071725 -0.013141 -0.011703 0.0027135 0.0048051 -0.0011886 0.001017 -0.0060833 0.0048814 -0.0032311 -0.0079272 0.0056444 
挺难 0.0028976 0.0054889 -0.0039448 -0.00051713 -0.0018722 0.00082043 -0.0021298 -0.0023252 0.001467 -0.0052892 0.0033296 -0.0003724 0.0010595 0.004114 -0.0012081 0.00010073 0.0038134 0.0019162 -0.0084765 0.0039499 -0.00018008 -0.0081924 0.00091037 -0.0010486 -4.6647e-05 0.00084353 0.00078419 -0.0033678 -0.00091228 -0.0038628 0.0013947 -0.0018461 0.0056743 -0.0023646 -0.0010685 -0.0051334 0.0024626 0.00098197 0.00088476 0.0047596 0.0067738 -0.0053344 0.001901 0.0018766 0.0032051 -0.0039664 0.0015818 0.00083454 -0.0050897 -0.0014937 0.0034033 -0.0059946 -0.0016488 0.00089584 -0.0033887 -0.00079679 -0.00056872 0.0063564 -0.006521 0.0041219 -0.0011285 -0.0039252 0.00085788 -0.0032013 -0.003372 -0.0022322 0.0007203 0.0010401 -0.0048242 -0.00072791 -0.00028275 2.9082e-05 0.0032922 -0.0055608 -0.0030681 -0.0025992 -0.0012572 4.9212e-05 -0.00029399 0.0027692 0.010344 -0.0068909 0.0072498 0.00018517 0.0030793 0.00058127 -0.0069061 -0.0050149 -0.005498 -0.0056709 -0.0076848 0.0043548 0.0023306 -0.0074565 -0.0054333 0.0033573 0.006771 0.0022232 -0.0036153 0.0059931 
最高分 0.0054869 0.0071767 -0.0014955 0.003548 -0.0093584 0.010042 -0.013255 0.0015438 -0.0060991 0.0021449 0.0033525 -0.00091121 -0.0055923 0.00094041 0.0016088 0.0029555 0.0072389 -0.004132 0.0013393 -0.0025048 -0.0016822 -0.0078893 -0.0031763 0.00021051 0.0010254 -0.0009071 0.002519 -0.0011717 0.0037725 -0.0011149 0.00028508 0.0013388 0.0051488 0.0026058 -0.0044009 -0.002586 0.0088642 -0.003251 -0.0031732 0.0057016 0.010492 -0.00055853 0.0014485 0.00069701 0.0072082 -0.0011223 0.0014029 0.0028454 -0.0087891 -0.0093354 0.0056063 -0.01329 -0.0076211 0.004912 -0.0014359 0.0073832 -0.0045539 0.014396 -0.0059775 0.00435 0.0036363 -0.00041146 0.0074235 -0.0043894 -0.0089867 -0.01012 0.0097047 0.0019564 -0.0090423 0.0025589 0.0050602 -0.0049262 -0.00079038 -0.0035816 -0.0052595 0.00070464 0.0056024 0.00066267 0.010303 0.0058691 0.010325 -0.013365 0.008196 0.0026477 0.0033813 0.0032004 -0.013855 -0.0081238 -0.0060165 -0.010903 -0.0077295 0.0069282 0.0077862 -0.0076214 -0.0039904 -0.0074099 -0.0015103 0.00094694 -0.0076269 0.012551 
感冒 -0.0034021 0.0045328 -0.0016571 0.0025766 -0.0016584 -0.0016089 -0.0017595 0.0041925 0.0028661 0.0037902 0.00097228 0.0030454 0.0051616 0.0041778 -0.0034258 -0.00013708 -0.0009595 0.0015707 -0.0043869 3.3902e-05 -0.0056361 0.001871 -0.0046721 0.0025532 -0.0012081 -0.0026603 0.0025817 -0.0030082 -0.0018456 0.0024381 -0.002058 -0.0039957 -0.0036204 -0.0050768 0.00081583 0.00011536 -0.00085675 -0.0014442 -0.00027605 0.0049978 0.0027046 -0.001278 -0.0033794 -0.0027095 0.0039874 -0.00082362 -0.001375 -0.0015429 -0.0014564 -0.0044689 0.0051391 0.0028224 -0.0010107 -0.00074424 0.0042819 -0.00017356 -0.002168 0.0016188 -0.0047666 0.0015635 0.0032464 0.00044541 0.0025519 -0.0015116 -0.0013606 -0.0041761 0.0011177 -0.0068536 -0.0036784 0.0018553 0.00081751 0.00027677 0.0031376 -3.6298e-05 -0.0043607 0.0030915 0.00062875 -0.001373 -0.0022396 0.0017463 0.0037797 -0.0027126 0.002023 0.0021338 -0.00068503 0.0020565 -0.0012752 -0.0013604 -0.00058245 -0.00061695 0.000902 0.0035275 0.007542 -0.0018147 -0.0028137 -0.00056583 0.0034571 -0.0011236 -0.0013134 -0.00083609 
启发 0.0042845 0.010485 0.0055269 4.3171e-05 -0.0091612 0.0094615 -0.0077553 0.0056801 -0.004694 0.0029983 0.0036369 0.00035009 -0.0076874 -0.0018651 -0.0086818 0.006433 -0.0022399 -0.0024609 -0.0014537 -0.00037247 -0.0026723 -0.0016616 -0.00025969 0.0013481 -0.0016372 -0.0041079 -0.0051352 -0.0086722 -0.0032323 0.002467 0.00091306 -0.0048183 0.00035839 0.003745 -0.000646 -0.0053902 0.0074772 -0.011677 -0.00052357 0.0088366 0.0032226 -0.0029566 0.0086394 0.0032661 0.015568 -0.0021754 0.0026043 -0.0016446 -0.0069952 -0.0017496 0.0027731 -0.0052388 2.2663e-05 0.010706 0.0046887 0.00285 -0.0020607 0.01339 -0.0012862 -0.0030436 0.0028426 -0.010718 0.0051958 -0.009157 -0.0051981 -0.0066044 0.0074596 0.0041257 -0.0050911 0.00062283 0.00296 -0.004655 -0.0011917 -0.0038829 -0.0045027 0.0019784 0.0062312 0.0023313 0.012559 0.0066166 0.01289 -0.0074611 0.0059259 0.005782 0.0077721 0.0069158 -0.0096295 -0.0052077 -0.0058492 -0.0059674 -0.00054657 0.0042935 0.0096726 -0.0022241 -0.0086871 0.0022167 -0.00039949 0.0013693 -0.0019073 0.0041848 
脱离 0.0012127 0.0092108 0.006021 0.001857 -0.0050876 0.0045618 -0.0072615 0.0068603 -0.0086644 -0.0015311 0.0033741 0.0057088 -0.0074544 0.009623 -0.011798 -0.00097739 -0.0020377 -4.6246e-05 -0.0028339 -0.0016988 -0.0054006 -0.0052201 -0.0029976 0.0053656 -0.0016772 -0.0044969 -0.0039913 -0.0086363 0.001307 0.006692 0.0038448 -0.00037499 0.0040884 0.0043133 -0.0046875 -0.0087028 0.0041965 -0.0096358 -0.0041858 0.011372 0.0015124 -0.0034443 0.00395 0.0013701 0.014403 -0.0015328 0.0043904 -0.0024374 -0.0048985 -0.007499 0.00052544 -0.0076888 -0.0045023 0.0026322 0.0044281 0.0029254 -0.0046003 0.0099987 -0.0018853 -0.0054047 0.0034817 -0.0013349 0.0056602 -0.0083946 -0.0047717 -0.0070807 0.0034034 -0.00082276 -0.0086173 0.00087025 0.0044336 -0.00037053 0.0034445 0.0059625 -0.0054091 -0.0053534 0.00562 -0.0023003 0.014418 -0.0017475 0.0067428 -0.0082089 0.0072838 0.0014523 0.0017954 -0.00090888 -0.013559 0.0013047 -0.0096013 -0.013085 0.00034303 -0.0014112 0.0081096 -0.0040656 -0.0070113 -0.0022063 0.0067604 -0.0024153 3.7008e-05 0.01235 
境界 -0.0031775 0.0015817 -0.0028141 -0.0027005 -0.0062162 0.0013138 -0.0019857 0.0018361 0.0051463 0.00071267 -0.0034491 -3.5706e-05 -0.00078958 -0.0046833 0.0072484 0.0022978 0.0022453 -0.0022764 -0.0008189 0.0012598 -0.0019538 0.00060285 -0.0048428 -0.0020535 -0.0041561 -0.0058256 -0.00072732 -0.0014479 0.00049044 0.0027023 0.0047474 0.0034395 -0.0034534 0.0033754 0.0038771 -0.0018453 0.0027738 0.0051605 -0.0020994 0.005055 0.0013536 -0.0039312 -0.0014368 0.00096382 -0.002699 0.0003785 -0.0027987 -0.0055428 -0.001692 -0.0025187 -0.006367 -0.00071564 0.00053048 0.0011251 -0.0021688 -0.00026176 -0.0061647 0.001523 0.00012527 -0.00092454 -0.0038885 0.00085265 0.0017075 -0.0038927 0.0046082 0.001555 0.00018606 0.00378 -0.0034722 -0.00042716 -0.00027743 0.004591 0.0035834 -0.0049807 0.0027026 0.003357 0.0052554 -0.0066159 -0.00067946 0.0013581 -5.1802e-05 0.0015624 -0.00076487 -0.0001182 0.0042581 0.0011628 -0.0038152 -0.0011894 -0.0042895 0.00080095 -0.0033391 -0.0003847 -0.0029212 0.0028329 -8.7727e-05 0.0025675 0.002758 -0.0042815 0.0023056 0.0051687 
人生 0.0008728 0.004314 0.0021673 0.0062117 -0.003405 0.0039162 -0.0084659 -0.0035796 -0.0043627 0.00039665 -0.0018839 0.0027717 0.00018473 -0.0016989 -0.0059275 -0.0029882 -0.00029077 0.0023068 -0.0074163 0.00036033 -0.0043325 -0.0047696 0.0036452 -0.00033059 -0.0042339 0.00085204 0.0017337 -0.0044739 -0.0012384 0.0029806 0.0028136 -0.006294 0.0020827 -4.6897e-05 -0.0013225 0.00091452 0.00023233 -0.0015646 -0.0011107 -0.0047756 0.0055696 0.0013437 -0.0035811 -0.00026017 -0.0013072 -0.0017973 0.0047247 0.0043199 0.002381 -0.0034317 -0.0027436 -0.0036912 -0.0070054 0.0054486 -0.0068873 0.0029324 0.0033579 0.0036428 -0.0048984 -0.00019896 -1.6165e-05 -0.0063884 0.0022798 3.2469e-05 0.0020174 -0.0020207 0.00059954 0.002018 -0.00032758 -0.00052672 0.002424 0.0007682 -0.0029646 -0.00049855 -0.0055653 0.0020916 0.0027375 -0.00018371 0.0032192 -0.00072931 -0.0027236 0.0020079 -0.0016235 -0.0045704 0.0072308 -0.003768 -0.00047727 -0.0041449 0.00044646 -0.002764 -0.0010957 0.0010289 0.00036075 -0.0049008 -0.0026239 -0.0015101 0.0027239 -0.00051969 -0.0027283 0.0041329 
泪来 0.00083881 -0.0035999 0.0013088 -0.00013447 1.7485e-05 0.0025811 -0.0027717 0.0029808 -0.0050508 0.00037767 0.00034589 -0.0022088 -0.0078714 -0.0017502 0.00076187 -0.0004168 -0.0018874 -5.5418e-05 6.5917e-05 -0.0007154 -0.0029944 -0.0033916 -0.002829 0.0019826 -0.0042992 0.0021343 -0.0041838 -0.004685 0.0016727 -0.0021116 -0.00018354 -0.0029111 -0.0010472 0.0012079 -0.0032501 -0.00083697 -0.0029599 -0.0010414 -6.1768e-05 -0.0027457 0.003054 -0.0014506 -0.0027812 -0.0008677 -0.00017572 0.0016875 0.0058113 -0.0008859 0.0035242 0.0020038 -0.0025939 -0.00070161 0.002556 -0.0014305 -0.0038898 0.00045667 0.0015883 0.00028223 0.0012933 -0.00047456 0.00070489 -0.0015543 -2.8396e-05 -0.0028957 0.00067421 -0.0016131 0.0027295 -0.0003044 -0.0051591 -0.0051289 0.0039022 -0.0026872 -0.0045556 -0.00036997 0.0029159 -0.0020807 0.0040857 -0.0035596 -0.0020221 0.0011603 -0.0021767 0.0028016 0.0062268 0.0030046 -0.0027365 -0.0011512 -0.0030565 0.00037371 0.0014666 -0.0037477 0.0024072 -0.0038258 -3.6254e-06 0.0019621 0.0011899 -0.0012636 -0.0050531 0.0012044 0.0041062 -0.0014941 
厉害 0.0037174 0.0003901 0.0010268 -2.9832e-05 -0.00081097 -0.00049629 0.0013852 -0.0016804 0.0016179 -0.00039389 -0.00018199 0.0035824 -0.0024083 0.0012547 0.0032256 0.0040183 -0.0029115 0.00065151 0.0021433 -0.0015571 0.0022036 -0.002859 0.0028263 0.0038976 0.00072787 -0.0034551 0.0018225 -0.0048468 -0.0012276 0.00081774 -0.0012222 0.0018648 -0.00046699 -0.0034471 -0.0008374 -0.0046104 -0.00089972 0.0014983 0.0042747 0.0022593 0.00086091 -0.0005494 0.0040918 -0.0049464 0.00025114 0.0024259 -0.00038304 0.00091553 -0.00044508 -0.0033108 -0.0039143 0.003546 -0.0042948 0.0019743 0.0019955 0.0008696 -0.0035882 -0.0045157 -0.0012332 0.003334 0.0044816 -0.00099055 0.0033902 -0.00078829 -0.0055129 -0.0026501 0.0031755 0.004264 0.00066364 -0.00089565 -0.00011748 0.0013912 0.0030946 -0.003672 -0.0033193 -0.00037295 0.00084766 -0.0045842 0.0020071 -0.0044478 0.00072557 -0.003668 -0.00097513 -0.00089654 0.0032446 0.00045731 0.00089961 0.0037764 8.5538e-05 -0.0050705 -0.0061468 0.00036926 -0.0028428 -0.0005866 0.0021811 -0.0030295 0.00098762 -0.0057789 -0.0011906 0.0026772 
演员 -0.003371 -8.7038e-05 0.005996 0.0022814 0.00016457 0.0035327 -0.0048875 0.00029138 0.002664 -0.0020594 -0.0028625 -0.00016154 0.0042662 0.00030449 -0.0023483 0.0013476 0.0033016 0.0026226 -0.00026534 0.0031016 0.0014554 -0.0050581 -0.0043424 -0.0043377 0.0023683 -0.00048766 -0.0013573 -0.0019701 -0.00010574 0.00020868 0.00060705 1.5533e-05 -0.0016995 0.00082171 0.0022586 -0.00019322 0.0012023 -0.0034067 0.00017249 -0.0038579 0.0023629 -0.0012733 -0.0019418 -0.003694 -0.0014858 0.0032344 0.0028551 0.00075808 -0.00060838 -0.0054348 0.0054146 0.00034109 -0.0062286 8.9571e-05 -0.0034854 0.00093818 0.00049315 0.0013986 0.0017557 -0.0054238 -0.0027764 -0.0021112 0.0032464 -0.0012576 0.002735 -6.5381e-05 0.003252 0.0018439 0.0015103 -4.9627e-05 0.001184 -0.0010595 0.0018095 0.0029132 -0.0042834 0.0018018 0.0038812 0.0010839 -0.0027404 0.0020252 0.0040765 0.0011879 0.00054298 0.0043691 -0.0026669 0.0023278 -0.0021006 0.00073641 0.00092861 0.0019515 0.0015916 -0.0036438 -0.0017262 -0.0054947 0.0032693 0.0023904 0.0063156 -0.0068905 -0.0039954 0.0022714 
落下 0.0013448 0.00039372 -0.00217 -0.00074245 -0.0047786 0.0064801 -0.0086159 0.0010927 -0.0034065 -0.0022049 -0.0013491 -0.0016797 -0.0011212 -0.0022994 0.00061599 -0.0018781 -0.0022917 0.001291 -0.002433 6.3437e-06 -0.00045068 -0.0053357 -0.0009262 -9.2518e-05 -0.00037599 -0.0064284 0.0023954 0.0013801 0.0014228 -0.0018067 -0.00058705 -0.0023053 0.0017273 -0.0052033 0.0017891 -0.0018346 0.0047196 -0.0063547 0.0011126 -0.00033474 0.0049883 0.0017588 -0.0013309 -0.001257 -0.0010992 0.0055709 0.00036806 -0.00087724 -0.0016349 0.0015721 -0.0014353 -0.0012886 0.0011281 0.0019993 0.0052521 0.0023336 -0.0045973 0.00016553 0.00077611 0.00669 0.0026806 -0.0015873 -0.00087758 -0.0056942 0.00034013 0.00061955 -0.0012902 0.0039874 -0.0018204 0.0029746 0.00060732 -0.001183 -0.0019593 -0.00042136 -0.0020575 -0.00044356 0.0011894 -0.0027194 0.0011947 0.0017016 0.0017295 -0.0054304 -0.0029214 -0.0023441 -0.0015459 0.0028211 -0.0038971 0.0037787 -0.0023559 -0.0052989 -0.0071845 0.0080926 0.004352 -0.0037396 0.00066506 -0.00092576 0.0016706 0.0011996 -0.0025278 0.002293 
